digraph Tree {
node [shape=box, style="filled, rounded", color="black", fontname="helvetica"] ;
edge [fontname="helvetica"] ;
0 [label="Year <= 1.5\ngini = 0.9\nsamples = 4250\nvalue = [417, 426, 424, 402, 432, 417, 437, 439, 434, 422]\nclass = Sugar Cream Pie", fillcolor="#ffffff"] ;
1 [label="University <= 2.0\ngini = 0.849\nsamples = 1956\nvalue = [309, 49, 343, 58, 95, 34, 364, 49, 337, 318]\nclass = Indiana Pork Chili", fillcolor="#fcfcff"] ;
0 -> 1 [labeldistance=2.5, labelangle=45, headlabel="True"] ;
2 [label="Time <= 13.5\ngini = 0.789\nsamples = 1123\nvalue = [285, 9, 74, 5, 59, 28, 347, 34, 58, 224]\nclass = Indiana Pork Chili", fillcolor="#f1f0fd"] ;
1 -> 2 ;
3 [label="Major <= 7.5\ngini = 0.737\nsamples = 883\nvalue = [265, 9, 73, 3, 13, 28, 341, 24, 21, 106]\nclass = Indiana Pork Chili", fillcolor="#e7e7fc"] ;
2 -> 3 ;
4 [label="Major <= 2.5\ngini = 0.684\nsamples = 572\nvalue = [134, 0, 45, 2, 9, 25, 283, 13, 13, 48]\nclass = Indiana Pork Chili", fillcolor="#bdbcf6"] ;
3 -> 4 ;
5 [label="University <= 0.5\ngini = 0.718\nsamples = 119\nvalue = [54, 0, 15, 0, 3, 2, 14, 2, 4, 25]\nclass = Breaded Pork Tenderloin Sandwich", fillcolor="#f7d8c2"] ;
4 -> 5 ;
6 [label="Major <= 1.5\ngini = 0.415\nsamples = 44\nvalue = [33, 0, 1, 0, 1, 2, 6, 0, 0, 1]\nclass = Breaded Pork Tenderloin Sandwich", fillcolor="#eda572"] ;
5 -> 6 ;
7 [label="Time <= 11.5\ngini = 0.32\nsamples = 5\nvalue = [0, 0, 0, 0, 0, 1, 4, 0, 0, 0]\nclass = Indiana Pork Chili", fillcolor="#6d6aec"] ;
6 -> 7 ;
8 [label="gini = 0.0\nsamples = 4\nvalue = [0, 0, 0, 0, 0, 0, 4, 0, 0, 0]\nclass = Indiana Pork Chili", fillcolor="#3c39e5"] ;
7 -> 8 ;
9 [label="gini = 0.0\nsamples = 1\nvalue = [0, 0, 0, 0, 0, 1, 0, 0, 0, 0]\nclass = Indiana Corn on the Cob (brushed with garlic butter)", fillcolor="#399de5"] ;
7 -> 9 ;
10 [label="Time <= 12.5\ngini = 0.279\nsamples = 39\nvalue = [33, 0, 1, 0, 1, 1, 2, 0, 0, 1]\nclass = Breaded Pork Tenderloin Sandwich", fillcolor="#e99559"] ;
6 -> 10 ;
11 [label="Time <= 11.5\ngini = 0.14\nsamples = 27\nvalue = [25, 0, 1, 0, 0, 1, 0, 0, 0, 0]\nclass = Breaded Pork Tenderloin Sandwich", fillcolor="#e78b48"] ;
10 -> 11 ;
12 [label="Time <= 10.5\ngini = 0.215\nsamples = 17\nvalue = [15, 0, 1, 0, 0, 1, 0, 0, 0, 0]\nclass = Breaded Pork Tenderloin Sandwich", fillcolor="#e89152"] ;
11 -> 12 ;
13 [label="gini = 0.0\nsamples = 3\nvalue = [3, 0, 0, 0, 0, 0, 0, 0, 0, 0]\nclass = Breaded Pork Tenderloin Sandwich", fillcolor="#e58139"] ;
12 -> 13 ;
14 [label="gini = 0.255\nsamples = 14\nvalue = [12, 0, 1, 0, 0, 1, 0, 0, 0, 0]\nclass = Breaded Pork Tenderloin Sandwich", fillcolor="#e99457"] ;
12 -> 14 ;
15 [label="gini = 0.0\nsamples = 10\nvalue = [10, 0, 0, 0, 0, 0, 0, 0, 0, 0]\nclass = Breaded Pork Tenderloin Sandwich", fillcolor="#e58139"] ;
11 -> 15 ;
16 [label="gini = 0.514\nsamples = 12\nvalue = [8, 0, 0, 0, 1, 0, 2, 0, 0, 1]\nclass = Breaded Pork Tenderloin Sandwich", fillcolor="#efb388"] ;
10 -> 16 ;
17 [label="Time <= 12.5\ngini = 0.769\nsamples = 75\nvalue = [21, 0, 14, 0, 2, 0, 8, 2, 4, 24]\nclass = Ultimate Grilled Cheese Sandwich (with bacon and tomato)", fillcolor="#fef4f6"] ;
5 -> 17 ;
18 [label="Major <= 1.5\ngini = 0.742\nsamples = 47\nvalue = [17, 0, 14, 0, 1, 0, 4, 2, 1, 8]\nclass = Breaded Pork Tenderloin Sandwich", fillcolor="#fdf4ed"] ;
17 -> 18 ;
19 [label="Time <= 11.0\ngini = 0.5\nsamples = 6\nvalue = [0, 0, 1, 0, 0, 0, 4, 1, 0, 0]\nclass = Indiana Pork Chili", fillcolor="#8a88ef"] ;
18 -> 19 ;
20 [label="gini = 0.32\nsamples = 5\nvalue = [0, 0, 1, 0, 0, 0, 4, 0, 0, 0]\nclass = Indiana Pork Chili", fillcolor="#6d6aec"] ;
19 -> 20 ;
21 [label="gini = 0.0\nsamples = 1\nvalue = [0, 0, 0, 0, 0, 0, 0, 1, 0, 0]\nclass = Sugar Cream Pie", fillcolor="#a339e5"] ;
19 -> 21 ;
22 [label="Time <= 11.5\ngini = 0.688\nsamples = 41\nvalue = [17, 0, 13, 0, 1, 0, 0, 1, 1, 8]\nclass = Breaded Pork Tenderloin Sandwich", fillcolor="#fbede3"] ;
18 -> 22 ;
23 [label="Time <= 9.5\ngini = 0.524\nsamples = 15\nvalue = [9, 0, 5, 0, 0, 0, 0, 0, 1, 0]\nclass = Breaded Pork Tenderloin Sandwich", fillcolor="#f5cdb0"] ;
22 -> 23 ;
24 [label="gini = 0.0\nsamples = 1\nvalue = [1, 0, 0, 0, 0, 0, 0, 0, 0, 0]\nclass = Breaded Pork Tenderloin Sandwich", fillcolor="#e58139"] ;
23 -> 24 ;
25 [label="Time <= 10.5\ngini = 0.541\nsamples = 14\nvalue = [8, 0, 5, 0, 0, 0, 0, 0, 1, 0]\nclass = Breaded Pork Tenderloin Sandwich", fillcolor="#f6d5bd"] ;
23 -> 25 ;
26 [label="gini = 0.469\nsamples = 8\nvalue = [5, 0, 3, 0, 0, 0, 0, 0, 0, 0]\nclass = Breaded Pork Tenderloin Sandwich", fillcolor="#f5cdb0"] ;
25 -> 26 ;
27 [label="gini = 0.611\nsamples = 6\nvalue = [3, 0, 2, 0, 0, 0, 0, 0, 1, 0]\nclass = Breaded Pork Tenderloin Sandwich", fillcolor="#f8e0ce"] ;
25 -> 27 ;
28 [label="gini = 0.713\nsamples = 26\nvalue = [8, 0, 8, 0, 1, 0, 0, 1, 0, 8]\nclass = Breaded Pork Tenderloin Sandwich", fillcolor="#ffffff"] ;
22 -> 28 ;
29 [label="Major <= 1.0\ngini = 0.62\nsamples = 28\nvalue = [4, 0, 0, 0, 1, 0, 4, 0, 3, 16]\nclass = Ultimate Grilled Cheese Sandwich (with bacon and tomato)", fillcolor="#f29cac"] ;
17 -> 29 ;
30 [label="gini = 0.0\nsamples = 2\nvalue = [2, 0, 0, 0, 0, 0, 0, 0, 0, 0]\nclass = Breaded Pork Tenderloin Sandwich", fillcolor="#e58139"] ;
29 -> 30 ;
31 [label="gini = 0.577\nsamples = 26\nvalue = [2, 0, 0, 0, 1, 0, 4, 0, 3, 16]\nclass = Ultimate Grilled Cheese Sandwich (with bacon and tomato)", fillcolor="#f193a4"] ;
29 -> 31 ;
32 [label="Time <= 12.5\ngini = 0.605\nsamples = 453\nvalue = [80, 0, 30, 2, 6, 23, 269, 11, 9, 23]\nclass = Indiana Pork Chili", fillcolor="#9c9bf2"] ;
4 -> 32 ;
33 [label="Time <= 10.5\ngini = 0.542\nsamples = 352\nvalue = [49, 0, 30, 2, 0, 19, 230, 6, 4, 12]\nclass = Indiana Pork Chili", fillcolor="#8b89ef"] ;
32 -> 33 ;
34 [label="Major <= 6.0\ngini = 0.645\nsamples = 27\nvalue = [13, 0, 8, 0, 0, 0, 5, 0, 1, 0]\nclass = Breaded Pork Tenderloin Sandwich", fillcolor="#f8decb"] ;
33 -> 34 ;
35 [label="University <= 0.5\ngini = 0.517\nsamples = 22\nvalue = [13, 0, 8, 0, 0, 0, 0, 0, 1, 0]\nclass = Breaded Pork Tenderloin Sandwich", fillcolor="#f6d2b8"] ;
34 -> 35 ;
36 [label="gini = 0.0\nsamples = 8\nvalue = [8, 0, 0, 0, 0, 0, 0, 0, 0, 0]\nclass = Breaded Pork Tenderloin Sandwich", fillcolor="#e58139"] ;
35 -> 36 ;
37 [label="Major <= 4.5\ngini = 0.541\nsamples = 14\nvalue = [5, 0, 8, 0, 0, 0, 0, 0, 1, 0]\nclass = Fried Catfish Basket", fillcolor="#d3f6bd"] ;
35 -> 37 ;
38 [label="Major <= 3.5\ngini = 0.5\nsamples = 6\nvalue = [4, 0, 1, 0, 0, 0, 0, 0, 1, 0]\nclass = Breaded Pork Tenderloin Sandwich", fillcolor="#efb388"] ;
37 -> 38 ;
39 [label="Time <= 9.5\ngini = 0.5\nsamples = 2\nvalue = [0, 0, 1, 0, 0, 0, 0, 0, 1, 0]\nclass = Fried Catfish Basket", fillcolor="#ffffff"] ;
38 -> 39 ;
40 [label="gini = 0.0\nsamples = 1\nvalue = [0, 0, 1, 0, 0, 0, 0, 0, 0, 0]\nclass = Fried Catfish Basket", fillcolor="#7be539"] ;
39 -> 40 ;
41 [label="gini = 0.0\nsamples = 1\nvalue = [0, 0, 0, 0, 0, 0, 0, 0, 1, 0]\nclass = Sweet Potato Fries", fillcolor="#e539c0"] ;
39 -> 41 ;
42 [label="gini = 0.0\nsamples = 4\nvalue = [4, 0, 0, 0, 0, 0, 0, 0, 0, 0]\nclass = Breaded Pork Tenderloin Sandwich", fillcolor="#e58139"] ;
38 -> 42 ;
43 [label="Time <= 9.5\ngini = 0.219\nsamples = 8\nvalue = [1, 0, 7, 0, 0, 0, 0, 0, 0, 0]\nclass = Fried Catfish Basket", fillcolor="#8ee955"] ;
37 -> 43 ;
44 [label="gini = 0.0\nsamples = 1\nvalue = [0, 0, 1, 0, 0, 0, 0, 0, 0, 0]\nclass = Fried Catfish Basket", fillcolor="#7be539"] ;
43 -> 44 ;
45 [label="gini = 0.245\nsamples = 7\nvalue = [1, 0, 6, 0, 0, 0, 0, 0, 0, 0]\nclass = Fried Catfish Basket", fillcolor="#91e95a"] ;
43 -> 45 ;
46 [label="gini = 0.0\nsamples = 5\nvalue = [0, 0, 0, 0, 0, 0, 5, 0, 0, 0]\nclass = Indiana Pork Chili", fillcolor="#3c39e5"] ;
34 -> 46 ;
47 [label="University <= 0.5\ngini = 0.499\nsamples = 325\nvalue = [36, 0, 22, 2, 0, 19, 225, 6, 3, 12]\nclass = Indiana Pork Chili", fillcolor="#7f7eee"] ;
33 -> 47 ;
48 [label="Time <= 11.5\ngini = 0.518\nsamples = 162\nvalue = [23, 0, 1, 0, 0, 18, 108, 0, 0, 12]\nclass = Indiana Pork Chili", fillcolor="#8886ef"] ;
47 -> 48 ;
49 [label="Major <= 6.0\ngini = 0.337\nsamples = 54\nvalue = [9, 0, 0, 0, 0, 1, 43, 0, 0, 1]\nclass = Indiana Pork Chili", fillcolor="#6c69eb"] ;
48 -> 49 ;
50 [label="Major <= 3.5\ngini = 0.524\nsamples = 26\nvalue = [8, 0, 0, 0, 0, 1, 16, 0, 0, 1]\nclass = Indiana Pork Chili", fillcolor="#a8a7f3"] ;
49 -> 50 ;
51 [label="gini = 0.332\nsamples = 19\nvalue = [4, 0, 0, 0, 0, 0, 15, 0, 0, 0]\nclass = Indiana Pork Chili", fillcolor="#706eec"] ;
50 -> 51 ;
52 [label="Major <= 4.5\ngini = 0.612\nsamples = 7\nvalue = [4, 0, 0, 0, 0, 1, 1, 0, 0, 1]\nclass = Breaded Pork Tenderloin Sandwich", fillcolor="#f2c09c"] ;
50 -> 52 ;
53 [label="gini = 0.5\nsamples = 2\nvalue = [1, 0, 0, 0, 0, 0, 0, 0, 0, 1]\nclass = Breaded Pork Tenderloin Sandwich", fillcolor="#ffffff"] ;
52 -> 53 ;
54 [label="gini = 0.56\nsamples = 5\nvalue = [3, 0, 0, 0, 0, 1, 1, 0, 0, 0]\nclass = Breaded Pork Tenderloin Sandwich", fillcolor="#f2c09c"] ;
52 -> 54 ;
55 [label="gini = 0.069\nsamples = 28\nvalue = [1, 0, 0, 0, 0, 0, 27, 0, 0, 0]\nclass = Indiana Pork Chili", fillcolor="#4340e6"] ;
49 -> 55 ;
56 [label="Major <= 3.5\ngini = 0.586\nsamples = 108\nvalue = [14, 0, 1, 0, 0, 17, 65, 0, 0, 11]\nclass = Indiana Pork Chili", fillcolor="#9897f1"] ;
48 -> 56 ;
57 [label="gini = 0.433\nsamples = 47\nvalue = [4, 0, 0, 0, 0, 9, 34, 0, 0, 0]\nclass = Indiana Pork Chili", fillcolor="#7f7dee"] ;
56 -> 57 ;
58 [label="Major <= 4.5\ngini = 0.665\nsamples = 61\nvalue = [10, 0, 1, 0, 0, 8, 31, 0, 0, 11]\nclass = Indiana Pork Chili", fillcolor="#b1b0f5"] ;
56 -> 58 ;
59 [label="gini = 0.461\nsamples = 16\nvalue = [4, 0, 1, 0, 0, 0, 0, 0, 0, 11]\nclass = Ultimate Grilled Cheese Sandwich (with bacon and tomato)", fillcolor="#f08c9e"] ;
58 -> 59 ;
60 [label="Major <= 6.0\ngini = 0.476\nsamples = 45\nvalue = [6, 0, 0, 0, 0, 8, 31, 0, 0, 0]\nclass = Indiana Pork Chili", fillcolor="#8684ef"] ;
58 -> 60 ;
61 [label="gini = 0.338\nsamples = 30\nvalue = [4, 0, 0, 0, 0, 2, 24, 0, 0, 0]\nclass = Indiana Pork Chili", fillcolor="#6967eb"] ;
60 -> 61 ;
62 [label="gini = 0.604\nsamples = 15\nvalue = [2, 0, 0, 0, 0, 6, 7, 0, 0, 0]\nclass = Indiana Pork Chili", fillcolor="#e9e9fc"] ;
60 -> 62 ;
63 [label="Time <= 11.5\ngini = 0.46\nsamples = 163\nvalue = [13, 0, 21, 2, 0, 1, 117, 6, 3, 0]\nclass = Indiana Pork Chili", fillcolor="#7b79ed"] ;
47 -> 63 ;
64 [label="Major <= 6.0\ngini = 0.595\nsamples = 56\nvalue = [10, 0, 12, 1, 0, 0, 32, 1, 0, 0]\nclass = Indiana Pork Chili", fillcolor="#a6a5f3"] ;
63 -> 64 ;
65 [label="Major <= 3.5\ngini = 0.696\nsamples = 28\nvalue = [10, 0, 10, 1, 0, 0, 6, 1, 0, 0]\nclass = Breaded Pork Tenderloin Sandwich", fillcolor="#ffffff"] ;
64 -> 65 ;
66 [label="gini = 0.622\nsamples = 14\nvalue = [0, 0, 6, 1, 0, 0, 6, 1, 0, 0]\nclass = Fried Catfish Basket", fillcolor="#ffffff"] ;
65 -> 66 ;
67 [label="Major <= 4.5\ngini = 0.408\nsamples = 14\nvalue = [10, 0, 4, 0, 0, 0, 0, 0, 0, 0]\nclass = Breaded Pork Tenderloin Sandwich", fillcolor="#efb388"] ;
65 -> 67 ;
68 [label="gini = 0.0\nsamples = 8\nvalue = [8, 0, 0, 0, 0, 0, 0, 0, 0, 0]\nclass = Breaded Pork Tenderloin Sandwich", fillcolor="#e58139"] ;
67 -> 68 ;
69 [label="gini = 0.444\nsamples = 6\nvalue = [2, 0, 4, 0, 0, 0, 0, 0, 0, 0]\nclass = Fried Catfish Basket", fillcolor="#bdf29c"] ;
67 -> 69 ;
70 [label="gini = 0.133\nsamples = 28\nvalue = [0, 0, 2, 0, 0, 0, 26, 0, 0, 0]\nclass = Indiana Pork Chili", fillcolor="#4b48e7"] ;
64 -> 70 ;
71 [label="Major <= 3.5\ngini = 0.358\nsamples = 107\nvalue = [3, 0, 9, 1, 0, 1, 85, 5, 3, 0]\nclass = Indiana Pork Chili", fillcolor="#6865eb"] ;
63 -> 71 ;
72 [label="gini = 0.186\nsamples = 50\nvalue = [0, 0, 2, 1, 0, 0, 45, 2, 0, 0]\nclass = Indiana Pork Chili", fillcolor="#504ee8"] ;
71 -> 72 ;
73 [label="Major <= 4.5\ngini = 0.484\nsamples = 57\nvalue = [3, 0, 7, 0, 0, 1, 40, 3, 3, 0]\nclass = Indiana Pork Chili", fillcolor="#7e7cee"] ;
71 -> 73 ;
74 [label="gini = 0.5\nsamples = 4\nvalue = [2, 0, 2, 0, 0, 0, 0, 0, 0, 0]\nclass = Breaded Pork Tenderloin Sandwich", fillcolor="#ffffff"] ;
73 -> 74 ;
75 [label="Major <= 6.0\ngini = 0.414\nsamples = 53\nvalue = [1, 0, 5, 0, 0, 1, 40, 3, 3, 0]\nclass = Indiana Pork Chili", fillcolor="#716fec"] ;
73 -> 75 ;
76 [label="gini = 0.326\nsamples = 32\nvalue = [0, 0, 3, 0, 0, 1, 26, 0, 2, 0]\nclass = Indiana Pork Chili", fillcolor="#6462ea"] ;
75 -> 76 ;
77 [label="gini = 0.522\nsamples = 21\nvalue = [1, 0, 2, 0, 0, 0, 14, 3, 1, 0]\nclass = Indiana Pork Chili", fillcolor="#8886ef"] ;
75 -> 77 ;
78 [label="Major <= 4.5\ngini = 0.735\nsamples = 101\nvalue = [31, 0, 0, 0, 6, 4, 39, 5, 5, 11]\nclass = Indiana Pork Chili", fillcolor="#e9e8fc"] ;
32 -> 78 ;
79 [label="Major <= 3.5\ngini = 0.735\nsamples = 37\nvalue = [12, 0, 0, 0, 4, 0, 9, 0, 1, 11]\nclass = Breaded Pork Tenderloin Sandwich", fillcolor="#fefaf7"] ;
78 -> 79 ;
80 [label="University <= 0.5\ngini = 0.616\nsamples = 17\nvalue = [5, 0, 0, 0, 2, 0, 9, 0, 1, 0]\nclass = Indiana Pork Chili", fillcolor="#bebdf6"] ;
79 -> 80 ;
81 [label="gini = 0.593\nsamples = 9\nvalue = [4, 0, 0, 0, 1, 0, 4, 0, 0, 0]\nclass = Breaded Pork Tenderloin Sandwich", fillcolor="#ffffff"] ;
80 -> 81 ;
82 [label="gini = 0.562\nsamples = 8\nvalue = [1, 0, 0, 0, 1, 0, 5, 0, 1, 0]\nclass = Indiana Pork Chili", fillcolor="#908ef0"] ;
80 -> 82 ;
83 [label="University <= 0.5\ngini = 0.565\nsamples = 20\nvalue = [7, 0, 0, 0, 2, 0, 0, 0, 0, 11]\nclass = Ultimate Grilled Cheese Sandwich (with bacon and tomato)", fillcolor="#f7c2cc"] ;
79 -> 83 ;
84 [label="gini = 0.337\nsamples = 14\nvalue = [3, 0, 0, 0, 0, 0, 0, 0, 0, 11]\nclass = Ultimate Grilled Cheese Sandwich (with bacon and tomato)", fillcolor="#ec6f86"] ;
83 -> 84 ;
85 [label="gini = 0.444\nsamples = 6\nvalue = [4, 0, 0, 0, 2, 0, 0, 0, 0, 0]\nclass = Breaded Pork Tenderloin Sandwich", fillcolor="#f2c09c"] ;
83 -> 85 ;
86 [label="University <= 0.5\ngini = 0.677\nsamples = 64\nvalue = [19, 0, 0, 0, 2, 4, 30, 5, 4, 0]\nclass = Indiana Pork Chili", fillcolor="#cfcff9"] ;
78 -> 86 ;
87 [label="Major <= 6.0\ngini = 0.654\nsamples = 37\nvalue = [16, 0, 0, 0, 1, 4, 14, 2, 0, 0]\nclass = Breaded Pork Tenderloin Sandwich", fillcolor="#fdf4ee"] ;
86 -> 87 ;
88 [label="gini = 0.595\nsamples = 29\nvalue = [13, 0, 0, 0, 1, 1, 13, 1, 0, 0]\nclass = Breaded Pork Tenderloin Sandwich", fillcolor="#ffffff"] ;
87 -> 88 ;
89 [label="gini = 0.688\nsamples = 8\nvalue = [3, 0, 0, 0, 0, 3, 1, 1, 0, 0]\nclass = Breaded Pork Tenderloin Sandwich", fillcolor="#ffffff"] ;
87 -> 89 ;
90 [label="Major <= 6.0\ngini = 0.601\nsamples = 27\nvalue = [3, 0, 0, 0, 1, 0, 16, 3, 4, 0]\nclass = Indiana Pork Chili", fillcolor="#9998f1"] ;
86 -> 90 ;
91 [label="gini = 0.496\nsamples = 22\nvalue = [3, 0, 0, 0, 0, 0, 15, 1, 3, 0]\nclass = Indiana Pork Chili", fillcolor="#8482ef"] ;
90 -> 91 ;
92 [label="gini = 0.72\nsamples = 5\nvalue = [0, 0, 0, 0, 1, 0, 1, 2, 1, 0]\nclass = Sugar Cream Pie", fillcolor="#e8cef8"] ;
90 -> 92 ;
93 [label="Major <= 14.5\ngini = 0.742\nsamples = 311\nvalue = [131, 9, 28, 1, 4, 3, 58, 11, 8, 58]\nclass = Breaded Pork Tenderloin Sandwich", fillcolor="#f7dbc6"] ;
3 -> 93 ;
94 [label="Time <= 12.5\ngini = 0.579\nsamples = 183\nvalue = [103, 9, 12, 0, 0, 0, 0, 0, 2, 57]\nclass = Breaded Pork Tenderloin Sandwich", fillcolor="#f6d1b7"] ;
93 -> 94 ;
95 [label="Major <= 11.5\ngini = 0.473\nsamples = 129\nvalue = [91, 9, 12, 0, 0, 0, 0, 0, 1, 16]\nclass = Breaded Pork Tenderloin Sandwich", fillcolor="#eeab7c"] ;
94 -> 95 ;
96 [label="Major <= 10.5\ngini = 0.275\nsamples = 57\nvalue = [48, 7, 2, 0, 0, 0, 0, 0, 0, 0]\nclass = Breaded Pork Tenderloin Sandwich", fillcolor="#ea985d"] ;
95 -> 96 ;
97 [label="Major <= 9.0\ngini = 0.391\nsamples = 15\nvalue = [11, 4, 0, 0, 0, 0, 0, 0, 0, 0]\nclass = Breaded Pork Tenderloin Sandwich", fillcolor="#eeaf81"] ;
96 -> 97 ;
98 [label="Time <= 10.5\ngini = 0.165\nsamples = 11\nvalue = [10, 1, 0, 0, 0, 0, 0, 0, 0, 0]\nclass = Breaded Pork Tenderloin Sandwich", fillcolor="#e88e4d"] ;
97 -> 98 ;
99 [label="University <= 0.5\ngini = 0.278\nsamples = 6\nvalue = [5, 1, 0, 0, 0, 0, 0, 0, 0, 0]\nclass = Breaded Pork Tenderloin Sandwich", fillcolor="#ea9a61"] ;
98 -> 99 ;
100 [label="gini = 0.0\nsamples = 3\nvalue = [3, 0, 0, 0, 0, 0, 0, 0, 0, 0]\nclass = Breaded Pork Tenderloin Sandwich", fillcolor="#e58139"] ;
99 -> 100 ;
101 [label="Time <= 9.5\ngini = 0.444\nsamples = 3\nvalue = [2, 1, 0, 0, 0, 0, 0, 0, 0, 0]\nclass = Breaded Pork Tenderloin Sandwich", fillcolor="#f2c09c"] ;
99 -> 101 ;
102 [label="gini = 0.0\nsamples = 1\nvalue = [1, 0, 0, 0, 0, 0, 0, 0, 0, 0]\nclass = Breaded Pork Tenderloin Sandwich", fillcolor="#e58139"] ;
101 -> 102 ;
103 [label="gini = 0.5\nsamples = 2\nvalue = [1, 1, 0, 0, 0, 0, 0, 0, 0, 0]\nclass = Breaded Pork Tenderloin Sandwich", fillcolor="#ffffff"] ;
101 -> 103 ;
104 [label="gini = 0.0\nsamples = 5\nvalue = [5, 0, 0, 0, 0, 0, 0, 0, 0, 0]\nclass = Breaded Pork Tenderloin Sandwich", fillcolor="#e58139"] ;
98 -> 104 ;
105 [label="Time <= 11.5\ngini = 0.375\nsamples = 4\nvalue = [1, 3, 0, 0, 0, 0, 0, 0, 0, 0]\nclass = Cornbread Hush Puppies", fillcolor="#ecee7b"] ;
97 -> 105 ;
106 [label="University <= 0.5\ngini = 0.5\nsamples = 2\nvalue = [1, 1, 0, 0, 0, 0, 0, 0, 0, 0]\nclass = Breaded Pork Tenderloin Sandwich", fillcolor="#ffffff"] ;
105 -> 106 ;
107 [label="gini = 0.0\nsamples = 1\nvalue = [0, 1, 0, 0, 0, 0, 0, 0, 0, 0]\nclass = Cornbread Hush Puppies", fillcolor="#e2e539"] ;
106 -> 107 ;
108 [label="gini = 0.0\nsamples = 1\nvalue = [1, 0, 0, 0, 0, 0, 0, 0, 0, 0]\nclass = Breaded Pork Tenderloin Sandwich", fillcolor="#e58139"] ;
106 -> 108 ;
109 [label="gini = 0.0\nsamples = 2\nvalue = [0, 2, 0, 0, 0, 0, 0, 0, 0, 0]\nclass = Cornbread Hush Puppies", fillcolor="#e2e539"] ;
105 -> 109 ;
110 [label="University <= 0.5\ngini = 0.217\nsamples = 42\nvalue = [37, 3, 2, 0, 0, 0, 0, 0, 0, 0]\nclass = Breaded Pork Tenderloin Sandwich", fillcolor="#e89152"] ;
96 -> 110 ;
111 [label="Time <= 10.5\ngini = 0.298\nsamples = 11\nvalue = [9, 0, 2, 0, 0, 0, 0, 0, 0, 0]\nclass = Breaded Pork Tenderloin Sandwich", fillcolor="#eb9d65"] ;
110 -> 111 ;
112 [label="gini = 0.5\nsamples = 2\nvalue = [1, 0, 1, 0, 0, 0, 0, 0, 0, 0]\nclass = Breaded Pork Tenderloin Sandwich", fillcolor="#ffffff"] ;
111 -> 112 ;
113 [label="Time <= 11.5\ngini = 0.198\nsamples = 9\nvalue = [8, 0, 1, 0, 0, 0, 0, 0, 0, 0]\nclass = Breaded Pork Tenderloin Sandwich", fillcolor="#e89152"] ;
111 -> 113 ;
114 [label="gini = 0.0\nsamples = 2\nvalue = [2, 0, 0, 0, 0, 0, 0, 0, 0, 0]\nclass = Breaded Pork Tenderloin Sandwich", fillcolor="#e58139"] ;
113 -> 114 ;
115 [label="gini = 0.245\nsamples = 7\nvalue = [6, 0, 1, 0, 0, 0, 0, 0, 0, 0]\nclass = Breaded Pork Tenderloin Sandwich", fillcolor="#e9965a"] ;
113 -> 115 ;
116 [label="Time <= 9.5\ngini = 0.175\nsamples = 31\nvalue = [28, 3, 0, 0, 0, 0, 0, 0, 0, 0]\nclass = Breaded Pork Tenderloin Sandwich", fillcolor="#e88e4e"] ;
110 -> 116 ;
117 [label="gini = 0.0\nsamples = 3\nvalue = [3, 0, 0, 0, 0, 0, 0, 0, 0, 0]\nclass = Breaded Pork Tenderloin Sandwich", fillcolor="#e58139"] ;
116 -> 117 ;
118 [label="Time <= 10.5\ngini = 0.191\nsamples = 28\nvalue = [25, 3, 0, 0, 0, 0, 0, 0, 0, 0]\nclass = Breaded Pork Tenderloin Sandwich", fillcolor="#e89051"] ;
116 -> 118 ;
119 [label="gini = 0.245\nsamples = 7\nvalue = [6, 1, 0, 0, 0, 0, 0, 0, 0, 0]\nclass = Breaded Pork Tenderloin Sandwich", fillcolor="#e9965a"] ;
118 -> 119 ;
120 [label="Time <= 11.5\ngini = 0.172\nsamples = 21\nvalue = [19, 2, 0, 0, 0, 0, 0, 0, 0, 0]\nclass = Breaded Pork Tenderloin Sandwich", fillcolor="#e88e4e"] ;
118 -> 120 ;
121 [label="gini = 0.153\nsamples = 12\nvalue = [11, 1, 0, 0, 0, 0, 0, 0, 0, 0]\nclass = Breaded Pork Tenderloin Sandwich", fillcolor="#e78c4b"] ;
120 -> 121 ;
122 [label="gini = 0.198\nsamples = 9\nvalue = [8, 1, 0, 0, 0, 0, 0, 0, 0, 0]\nclass = Breaded Pork Tenderloin Sandwich", fillcolor="#e89152"] ;
120 -> 122 ;
123 [label="Time <= 11.5\ngini = 0.574\nsamples = 72\nvalue = [43, 2, 10, 0, 0, 0, 0, 0, 1, 16]\nclass = Breaded Pork Tenderloin Sandwich", fillcolor="#f2c2a0"] ;
95 -> 123 ;
124 [label="Major <= 12.5\ngini = 0.458\nsamples = 42\nvalue = [30, 2, 6, 0, 0, 0, 0, 0, 0, 4]\nclass = Breaded Pork Tenderloin Sandwich", fillcolor="#eeab7b"] ;
123 -> 124 ;
125 [label="University <= 0.5\ngini = 0.405\nsamples = 40\nvalue = [30, 0, 6, 0, 0, 0, 0, 0, 0, 4]\nclass = Breaded Pork Tenderloin Sandwich", fillcolor="#eda673"] ;
124 -> 125 ;
126 [label="gini = 0.0\nsamples = 12\nvalue = [12, 0, 0, 0, 0, 0, 0, 0, 0, 0]\nclass = Breaded Pork Tenderloin Sandwich", fillcolor="#e58139"] ;
125 -> 126 ;
127 [label="Time <= 10.5\ngini = 0.52\nsamples = 28\nvalue = [18, 0, 6, 0, 0, 0, 0, 0, 0, 4]\nclass = Breaded Pork Tenderloin Sandwich", fillcolor="#f1ba93"] ;
125 -> 127 ;
128 [label="gini = 0.245\nsamples = 7\nvalue = [6, 0, 1, 0, 0, 0, 0, 0, 0, 0]\nclass = Breaded Pork Tenderloin Sandwich", fillcolor="#e9965a"] ;
127 -> 128 ;
129 [label="gini = 0.58\nsamples = 21\nvalue = [12, 0, 5, 0, 0, 0, 0, 0, 0, 4]\nclass = Breaded Pork Tenderloin Sandwich", fillcolor="#f4c8a8"] ;
127 -> 129 ;
130 [label="gini = 0.0\nsamples = 2\nvalue = [0, 2, 0, 0, 0, 0, 0, 0, 0, 0]\nclass = Cornbread Hush Puppies", fillcolor="#e2e539"] ;
124 -> 130 ;
131 [label="Major <= 12.5\ngini = 0.633\nsamples = 30\nvalue = [13, 0, 4, 0, 0, 0, 0, 0, 1, 12]\nclass = Breaded Pork Tenderloin Sandwich", fillcolor="#fef8f4"] ;
123 -> 131 ;
132 [label="University <= 0.5\ngini = 0.637\nsamples = 29\nvalue = [12, 0, 4, 0, 0, 0, 0, 0, 1, 12]\nclass = Breaded Pork Tenderloin Sandwich", fillcolor="#ffffff"] ;
131 -> 132 ;
133 [label="gini = 0.561\nsamples = 14\nvalue = [6, 0, 1, 0, 0, 0, 0, 0, 0, 7]\nclass = Ultimate Grilled Cheese Sandwich (with bacon and tomato)", fillcolor="#fce6ea"] ;
132 -> 133 ;
134 [label="gini = 0.684\nsamples = 15\nvalue = [6, 0, 3, 0, 0, 0, 0, 0, 1, 5]\nclass = Breaded Pork Tenderloin Sandwich", fillcolor="#fcf2eb"] ;
132 -> 134 ;
135 [label="gini = 0.0\nsamples = 1\nvalue = [1, 0, 0, 0, 0, 0, 0, 0, 0, 0]\nclass = Breaded Pork Tenderloin Sandwich", fillcolor="#e58139"] ;
131 -> 135 ;
136 [label="Major <= 11.5\ngini = 0.374\nsamples = 54\nvalue = [12, 0, 0, 0, 0, 0, 0, 0, 1, 41]\nclass = Ultimate Grilled Cheese Sandwich (with bacon and tomato)", fillcolor="#ed768c"] ;
94 -> 136 ;
137 [label="gini = 0.0\nsamples = 5\nvalue = [5, 0, 0, 0, 0, 0, 0, 0, 0, 0]\nclass = Breaded Pork Tenderloin Sandwich", fillcolor="#e58139"] ;
136 -> 137 ;
138 [label="University <= 0.5\ngini = 0.279\nsamples = 49\nvalue = [7, 0, 0, 0, 0, 0, 0, 0, 1, 41]\nclass = Ultimate Grilled Cheese Sandwich (with bacon and tomato)", fillcolor="#ea5f78"] ;
136 -> 138 ;
139 [label="gini = 0.114\nsamples = 33\nvalue = [2, 0, 0, 0, 0, 0, 0, 0, 0, 31]\nclass = Ultimate Grilled Cheese Sandwich (with bacon and tomato)", fillcolor="#e74663"] ;
138 -> 139 ;
140 [label="gini = 0.508\nsamples = 16\nvalue = [5, 0, 0, 0, 0, 0, 0, 0, 1, 10]\nclass = Ultimate Grilled Cheese Sandwich (with bacon and tomato)", fillcolor="#f3a5b3"] ;
138 -> 140 ;
141 [label="Major <= 16.5\ngini = 0.72\nsamples = 128\nvalue = [28, 0, 16, 1, 4, 3, 58, 11, 6, 1]\nclass = Indiana Pork Chili", fillcolor="#c4c4f7"] ;
93 -> 141 ;
142 [label="Time <= 12.5\ngini = 0.755\nsamples = 85\nvalue = [27, 0, 16, 1, 4, 2, 27, 1, 6, 1]\nclass = Breaded Pork Tenderloin Sandwich", fillcolor="#ffffff"] ;
141 -> 142 ;
143 [label="University <= 0.5\ngini = 0.673\nsamples = 46\nvalue = [21, 0, 14, 0, 0, 2, 7, 1, 1, 0]\nclass = Breaded Pork Tenderloin Sandwich", fillcolor="#f9e3d4"] ;
142 -> 143 ;
144 [label="Time <= 11.5\ngini = 0.518\nsamples = 23\nvalue = [15, 0, 0, 0, 0, 2, 5, 1, 0, 0]\nclass = Breaded Pork Tenderloin Sandwich", fillcolor="#f1b991"] ;
143 -> 144 ;
145 [label="Time <= 10.0\ngini = 0.449\nsamples = 7\nvalue = [5, 0, 0, 0, 0, 1, 0, 1, 0, 0]\nclass = Breaded Pork Tenderloin Sandwich", fillcolor="#eeab7b"] ;
144 -> 145 ;
146 [label="gini = 0.0\nsamples = 1\nvalue = [1, 0, 0, 0, 0, 0, 0, 0, 0, 0]\nclass = Breaded Pork Tenderloin Sandwich", fillcolor="#e58139"] ;
145 -> 146 ;
147 [label="gini = 0.5\nsamples = 6\nvalue = [4, 0, 0, 0, 0, 1, 0, 1, 0, 0]\nclass = Breaded Pork Tenderloin Sandwich", fillcolor="#efb388"] ;
145 -> 147 ;
148 [label="gini = 0.508\nsamples = 16\nvalue = [10, 0, 0, 0, 0, 1, 5, 0, 0, 0]\nclass = Breaded Pork Tenderloin Sandwich", fillcolor="#f3c6a5"] ;
144 -> 148 ;
149 [label="Time <= 11.5\ngini = 0.552\nsamples = 23\nvalue = [6, 0, 14, 0, 0, 0, 2, 0, 1, 0]\nclass = Fried Catfish Basket", fillcolor="#c1f3a2"] ;
143 -> 149 ;
150 [label="Time <= 10.5\ngini = 0.245\nsamples = 7\nvalue = [1, 0, 6, 0, 0, 0, 0, 0, 0, 0]\nclass = Fried Catfish Basket", fillcolor="#91e95a"] ;
149 -> 150 ;
151 [label="gini = 0.0\nsamples = 2\nvalue = [0, 0, 2, 0, 0, 0, 0, 0, 0, 0]\nclass = Fried Catfish Basket", fillcolor="#7be539"] ;
150 -> 151 ;
152 [label="gini = 0.32\nsamples = 5\nvalue = [1, 0, 4, 0, 0, 0, 0, 0, 0, 0]\nclass = Fried Catfish Basket", fillcolor="#9cec6a"] ;
150 -> 152 ;
153 [label="gini = 0.633\nsamples = 16\nvalue = [5, 0, 8, 0, 0, 0, 2, 0, 1, 0]\nclass = Fried Catfish Basket", fillcolor="#dbf8c9"] ;
149 -> 153 ;
154 [label="University <= 0.5\ngini = 0.682\nsamples = 39\nvalue = [6, 0, 2, 1, 4, 0, 20, 0, 5, 1]\nclass = Indiana Pork Chili", fillcolor="#acabf4"] ;
142 -> 154 ;
155 [label="gini = 0.602\nsamples = 17\nvalue = [5, 0, 0, 0, 3, 0, 9, 0, 0, 0]\nclass = Indiana Pork Chili", fillcolor="#bebdf6"] ;
154 -> 155 ;
156 [label="gini = 0.682\nsamples = 22\nvalue = [1, 0, 2, 1, 1, 0, 11, 0, 5, 1]\nclass = Indiana Pork Chili", fillcolor="#bab9f6"] ;
154 -> 156 ;
157 [label="Time <= 11.5\ngini = 0.425\nsamples = 43\nvalue = [1, 0, 0, 0, 0, 1, 31, 10, 0, 0]\nclass = Indiana Pork Chili", fillcolor="#8381ee"] ;
141 -> 157 ;
158 [label="Major <= 18.5\ngini = 0.062\nsamples = 31\nvalue = [0, 0, 0, 0, 0, 0, 30, 1, 0, 0]\nclass = Indiana Pork Chili", fillcolor="#4240e6"] ;
157 -> 158 ;
159 [label="gini = 0.0\nsamples = 30\nvalue = [0, 0, 0, 0, 0, 0, 30, 0, 0, 0]\nclass = Indiana Pork Chili", fillcolor="#3c39e5"] ;
158 -> 159 ;
160 [label="gini = 0.0\nsamples = 1\nvalue = [0, 0, 0, 0, 0, 0, 0, 1, 0, 0]\nclass = Sugar Cream Pie", fillcolor="#a339e5"] ;
158 -> 160 ;
161 [label="Major <= 17.5\ngini = 0.417\nsamples = 12\nvalue = [1, 0, 0, 0, 0, 1, 1, 9, 0, 0]\nclass = Sugar Cream Pie", fillcolor="#bc6fec"] ;
157 -> 161 ;
162 [label="Time <= 12.5\ngini = 0.72\nsamples = 5\nvalue = [1, 0, 0, 0, 0, 1, 1, 2, 0, 0]\nclass = Sugar Cream Pie", fillcolor="#e8cef8"] ;
161 -> 162 ;
163 [label="gini = 0.667\nsamples = 3\nvalue = [1, 0, 0, 0, 0, 1, 1, 0, 0, 0]\nclass = Breaded Pork Tenderloin Sandwich", fillcolor="#ffffff"] ;
162 -> 163 ;
164 [label="gini = 0.0\nsamples = 2\nvalue = [0, 0, 0, 0, 0, 0, 0, 2, 0, 0]\nclass = Sugar Cream Pie", fillcolor="#a339e5"] ;
162 -> 164 ;
165 [label="gini = 0.0\nsamples = 7\nvalue = [0, 0, 0, 0, 0, 0, 0, 7, 0, 0]\nclass = Sugar Cream Pie", fillcolor="#a339e5"] ;
161 -> 165 ;
166 [label="University <= 0.5\ngini = 0.688\nsamples = 240\nvalue = [20, 0, 1, 2, 46, 0, 6, 10, 37, 118]\nclass = Ultimate Grilled Cheese Sandwich (with bacon and tomato)", fillcolor="#f5b6c1"] ;
2 -> 166 ;
167 [label="Major <= 11.5\ngini = 0.5\nsamples = 109\nvalue = [14, 0, 1, 0, 8, 0, 1, 7, 3, 75]\nclass = Ultimate Grilled Cheese Sandwich (with bacon and tomato)", fillcolor="#ee8094"] ;
166 -> 167 ;
168 [label="Major <= 4.5\ngini = 0.768\nsamples = 34\nvalue = [9, 0, 1, 0, 4, 0, 1, 4, 3, 12]\nclass = Ultimate Grilled Cheese Sandwich (with bacon and tomato)", fillcolor="#fce7eb"] ;
167 -> 168 ;
169 [label="Time <= 14.5\ngini = 0.683\nsamples = 26\nvalue = [7, 0, 0, 0, 4, 0, 1, 2, 0, 12]\nclass = Ultimate Grilled Cheese Sandwich (with bacon and tomato)", fillcolor="#f8cbd3"] ;
168 -> 169 ;
170 [label="Major <= 3.5\ngini = 0.742\nsamples = 19\nvalue = [6, 0, 0, 0, 4, 0, 1, 2, 0, 6]\nclass = Breaded Pork Tenderloin Sandwich", fillcolor="#ffffff"] ;
169 -> 170 ;
171 [label="Major <= 1.5\ngini = 0.7\nsamples = 10\nvalue = [3, 0, 0, 0, 4, 0, 1, 2, 0, 0]\nclass = Indiana Buffalo Chicken Tacos (3 tacos)", fillcolor="#e3fbf7"] ;
170 -> 171 ;
172 [label="gini = 0.0\nsamples = 1\nvalue = [0, 0, 0, 0, 0, 0, 0, 1, 0, 0]\nclass = Sugar Cream Pie", fillcolor="#a339e5"] ;
171 -> 172 ;
173 [label="Major <= 2.5\ngini = 0.667\nsamples = 9\nvalue = [3, 0, 0, 0, 4, 0, 1, 1, 0, 0]\nclass = Indiana Buffalo Chicken Tacos (3 tacos)", fillcolor="#defbf5"] ;
171 -> 173 ;
174 [label="gini = 0.571\nsamples = 7\nvalue = [2, 0, 0, 0, 4, 0, 1, 0, 0, 0]\nclass = Indiana Buffalo Chicken Tacos (3 tacos)", fillcolor="#b0f5e8"] ;
173 -> 174 ;
175 [label="gini = 0.5\nsamples = 2\nvalue = [1, 0, 0, 0, 0, 0, 0, 1, 0, 0]\nclass = Breaded Pork Tenderloin Sandwich", fillcolor="#ffffff"] ;
173 -> 175 ;
176 [label="gini = 0.444\nsamples = 9\nvalue = [3, 0, 0, 0, 0, 0, 0, 0, 0, 6]\nclass = Ultimate Grilled Cheese Sandwich (with bacon and tomato)", fillcolor="#f29cac"] ;
170 -> 176 ;
177 [label="Major <= 3.0\ngini = 0.245\nsamples = 7\nvalue = [1, 0, 0, 0, 0, 0, 0, 0, 0, 6]\nclass = Ultimate Grilled Cheese Sandwich (with bacon and tomato)", fillcolor="#e95a74"] ;
169 -> 177 ;
178 [label="gini = 0.32\nsamples = 5\nvalue = [1, 0, 0, 0, 0, 0, 0, 0, 0, 4]\nclass = Ultimate Grilled Cheese Sandwich (with bacon and tomato)", fillcolor="#ec6a82"] ;
177 -> 178 ;
179 [label="gini = 0.0\nsamples = 2\nvalue = [0, 0, 0, 0, 0, 0, 0, 0, 0, 2]\nclass = Ultimate Grilled Cheese Sandwich (with bacon and tomato)", fillcolor="#e53958"] ;
177 -> 179 ;
180 [label="Major <= 10.5\ngini = 0.719\nsamples = 8\nvalue = [2, 0, 1, 0, 0, 0, 0, 2, 3, 0]\nclass = Sweet Potato Fries", fillcolor="#fbdef4"] ;
168 -> 180 ;
181 [label="Major <= 8.5\ngini = 0.653\nsamples = 7\nvalue = [2, 0, 0, 0, 0, 0, 0, 2, 3, 0]\nclass = Sweet Potato Fries", fillcolor="#fad7f2"] ;
180 -> 181 ;
182 [label="Major <= 6.0\ngini = 0.611\nsamples = 6\nvalue = [1, 0, 0, 0, 0, 0, 0, 2, 3, 0]\nclass = Sweet Potato Fries", fillcolor="#f8ceef"] ;
181 -> 182 ;
183 [label="gini = 0.444\nsamples = 3\nvalue = [1, 0, 0, 0, 0, 0, 0, 0, 2, 0]\nclass = Sweet Potato Fries", fillcolor="#f29ce0"] ;
182 -> 183 ;
184 [label="Time <= 14.5\ngini = 0.444\nsamples = 3\nvalue = [0, 0, 0, 0, 0, 0, 0, 2, 1, 0]\nclass = Sugar Cream Pie", fillcolor="#d19cf2"] ;
182 -> 184 ;
185 [label="gini = 0.0\nsamples = 2\nvalue = [0, 0, 0, 0, 0, 0, 0, 2, 0, 0]\nclass = Sugar Cream Pie", fillcolor="#a339e5"] ;
184 -> 185 ;
186 [label="gini = 0.0\nsamples = 1\nvalue = [0, 0, 0, 0, 0, 0, 0, 0, 1, 0]\nclass = Sweet Potato Fries", fillcolor="#e539c0"] ;
184 -> 186 ;
187 [label="gini = 0.0\nsamples = 1\nvalue = [1, 0, 0, 0, 0, 0, 0, 0, 0, 0]\nclass = Breaded Pork Tenderloin Sandwich", fillcolor="#e58139"] ;
181 -> 187 ;
188 [label="gini = 0.0\nsamples = 1\nvalue = [0, 0, 1, 0, 0, 0, 0, 0, 0, 0]\nclass = Fried Catfish Basket", fillcolor="#7be539"] ;
180 -> 188 ;
189 [label="Major <= 14.0\ngini = 0.286\nsamples = 75\nvalue = [5, 0, 0, 0, 4, 0, 0, 3, 0, 63]\nclass = Ultimate Grilled Cheese Sandwich (with bacon and tomato)", fillcolor="#e95b75"] ;
167 -> 189 ;
190 [label="Time <= 14.5\ngini = 0.163\nsamples = 69\nvalue = [3, 0, 0, 0, 3, 0, 0, 0, 0, 63]\nclass = Ultimate Grilled Cheese Sandwich (with bacon and tomato)", fillcolor="#e74b67"] ;
189 -> 190 ;
191 [label="gini = 0.215\nsamples = 51\nvalue = [3, 0, 0, 0, 3, 0, 0, 0, 0, 45]\nclass = Ultimate Grilled Cheese Sandwich (with bacon and tomato)", fillcolor="#e8526d"] ;
190 -> 191 ;
192 [label="gini = 0.0\nsamples = 18\nvalue = [0, 0, 0, 0, 0, 0, 0, 0, 0, 18]\nclass = Ultimate Grilled Cheese Sandwich (with bacon and tomato)", fillcolor="#e53958"] ;
190 -> 192 ;
193 [label="Time <= 15.0\ngini = 0.611\nsamples = 6\nvalue = [2, 0, 0, 0, 1, 0, 0, 3, 0, 0]\nclass = Sugar Cream Pie", fillcolor="#e8cef8"] ;
189 -> 193 ;
194 [label="Major <= 16.5\ngini = 0.64\nsamples = 5\nvalue = [2, 0, 0, 0, 1, 0, 0, 2, 0, 0]\nclass = Breaded Pork Tenderloin Sandwich", fillcolor="#ffffff"] ;
193 -> 194 ;
195 [label="gini = 0.625\nsamples = 4\nvalue = [2, 0, 0, 0, 1, 0, 0, 1, 0, 0]\nclass = Breaded Pork Tenderloin Sandwich", fillcolor="#f6d5bd"] ;
194 -> 195 ;
196 [label="gini = 0.0\nsamples = 1\nvalue = [0, 0, 0, 0, 0, 0, 0, 1, 0, 0]\nclass = Sugar Cream Pie", fillcolor="#a339e5"] ;
194 -> 196 ;
197 [label="gini = 0.0\nsamples = 1\nvalue = [0, 0, 0, 0, 0, 0, 0, 1, 0, 0]\nclass = Sugar Cream Pie", fillcolor="#a339e5"] ;
193 -> 197 ;
198 [label="Major <= 2.5\ngini = 0.736\nsamples = 131\nvalue = [6, 0, 0, 2, 38, 0, 5, 3, 34, 43]\nclass = Ultimate Grilled Cheese Sandwich (with bacon and tomato)", fillcolor="#fef4f6"] ;
166 -> 198 ;
199 [label="Major <= 1.5\ngini = 0.543\nsamples = 44\nvalue = [1, 0, 0, 0, 9, 0, 1, 1, 4, 28]\nclass = Ultimate Grilled Cheese Sandwich (with bacon and tomato)", fillcolor="#f194a4"] ;
198 -> 199 ;
200 [label="Major <= 0.5\ngini = 0.5\nsamples = 6\nvalue = [0, 0, 0, 0, 3, 0, 0, 0, 3, 0]\nclass = Indiana Buffalo Chicken Tacos (3 tacos)", fillcolor="#ffffff"] ;
199 -> 200 ;
201 [label="gini = 0.0\nsamples = 3\nvalue = [0, 0, 0, 0, 3, 0, 0, 0, 0, 0]\nclass = Indiana Buffalo Chicken Tacos (3 tacos)", fillcolor="#39e5c5"] ;
200 -> 201 ;
202 [label="gini = 0.0\nsamples = 3\nvalue = [0, 0, 0, 0, 0, 0, 0, 0, 3, 0]\nclass = Sweet Potato Fries", fillcolor="#e539c0"] ;
200 -> 202 ;
203 [label="Time <= 14.5\ngini = 0.429\nsamples = 38\nvalue = [1, 0, 0, 0, 6, 0, 1, 1, 1, 28]\nclass = Ultimate Grilled Cheese Sandwich (with bacon and tomato)", fillcolor="#ed778c"] ;
199 -> 203 ;
204 [label="gini = 0.536\nsamples = 28\nvalue = [1, 0, 0, 0, 6, 0, 1, 1, 1, 18]\nclass = Ultimate Grilled Cheese Sandwich (with bacon and tomato)", fillcolor="#f193a4"] ;
203 -> 204 ;
205 [label="gini = 0.0\nsamples = 10\nvalue = [0, 0, 0, 0, 0, 0, 0, 0, 0, 10]\nclass = Ultimate Grilled Cheese Sandwich (with bacon and tomato)", fillcolor="#e53958"] ;
203 -> 205 ;
206 [label="Major <= 11.5\ngini = 0.734\nsamples = 87\nvalue = [5, 0, 0, 2, 29, 0, 4, 2, 30, 15]\nclass = Sweet Potato Fries", fillcolor="#fffcfe"] ;
198 -> 206 ;
207 [label="Major <= 7.5\ngini = 0.633\nsamples = 47\nvalue = [2, 0, 0, 2, 20, 0, 1, 1, 20, 1]\nclass = Indiana Buffalo Chicken Tacos (3 tacos)", fillcolor="#ffffff"] ;
206 -> 207 ;
208 [label="Time <= 14.5\ngini = 0.632\nsamples = 38\nvalue = [2, 0, 0, 2, 11, 0, 1, 1, 20, 1]\nclass = Sweet Potato Fries", fillcolor="#f6bdea"] ;
207 -> 208 ;
209 [label="Major <= 3.5\ngini = 0.716\nsamples = 26\nvalue = [2, 0, 0, 2, 10, 0, 1, 1, 9, 1]\nclass = Indiana Buffalo Chicken Tacos (3 tacos)", fillcolor="#f3fdfc"] ;
208 -> 209 ;
210 [label="gini = 0.56\nsamples = 5\nvalue = [0, 0, 0, 1, 0, 0, 0, 1, 3, 0]\nclass = Sweet Potato Fries", fillcolor="#f29ce0"] ;
209 -> 210 ;
211 [label="Major <= 6.0\ngini = 0.676\nsamples = 21\nvalue = [2, 0, 0, 1, 10, 0, 1, 0, 6, 1]\nclass = Indiana Buffalo Chicken Tacos (3 tacos)", fillcolor="#caf8f0"] ;
209 -> 211 ;
212 [label="Major <= 4.5\ngini = 0.555\nsamples = 16\nvalue = [2, 0, 0, 0, 10, 0, 1, 0, 3, 0]\nclass = Indiana Buffalo Chicken Tacos (3 tacos)", fillcolor="#94f1e0"] ;
211 -> 212 ;
213 [label="gini = 0.245\nsamples = 7\nvalue = [1, 0, 0, 0, 6, 0, 0, 0, 0, 0]\nclass = Indiana Buffalo Chicken Tacos (3 tacos)", fillcolor="#5ae9cf"] ;
212 -> 213 ;
214 [label="gini = 0.667\nsamples = 9\nvalue = [1, 0, 0, 0, 4, 0, 1, 0, 3, 0]\nclass = Indiana Buffalo Chicken Tacos (3 tacos)", fillcolor="#defbf5"] ;
212 -> 214 ;
215 [label="gini = 0.56\nsamples = 5\nvalue = [0, 0, 0, 1, 0, 0, 0, 0, 3, 1]\nclass = Sweet Potato Fries", fillcolor="#f29ce0"] ;
211 -> 215 ;
216 [label="Major <= 4.0\ngini = 0.153\nsamples = 12\nvalue = [0, 0, 0, 0, 1, 0, 0, 0, 11, 0]\nclass = Sweet Potato Fries", fillcolor="#e74bc6"] ;
208 -> 216 ;
217 [label="gini = 0.0\nsamples = 4\nvalue = [0, 0, 0, 0, 0, 0, 0, 0, 4, 0]\nclass = Sweet Potato Fries", fillcolor="#e539c0"] ;
216 -> 217 ;
218 [label="Major <= 6.0\ngini = 0.219\nsamples = 8\nvalue = [0, 0, 0, 0, 1, 0, 0, 0, 7, 0]\nclass = Sweet Potato Fries", fillcolor="#e955c9"] ;
216 -> 218 ;
219 [label="Time <= 15.5\ngini = 0.245\nsamples = 7\nvalue = [0, 0, 0, 0, 1, 0, 0, 0, 6, 0]\nclass = Sweet Potato Fries", fillcolor="#e95acb"] ;
218 -> 219 ;
220 [label="gini = 0.278\nsamples = 6\nvalue = [0, 0, 0, 0, 1, 0, 0, 0, 5, 0]\nclass = Sweet Potato Fries", fillcolor="#ea61cd"] ;
219 -> 220 ;
221 [label="gini = 0.0\nsamples = 1\nvalue = [0, 0, 0, 0, 0, 0, 0, 0, 1, 0]\nclass = Sweet Potato Fries", fillcolor="#e539c0"] ;
219 -> 221 ;
222 [label="gini = 0.0\nsamples = 1\nvalue = [0, 0, 0, 0, 0, 0, 0, 0, 1, 0]\nclass = Sweet Potato Fries", fillcolor="#e539c0"] ;
218 -> 222 ;
223 [label="gini = 0.0\nsamples = 9\nvalue = [0, 0, 0, 0, 9, 0, 0, 0, 0, 0]\nclass = Indiana Buffalo Chicken Tacos (3 tacos)", fillcolor="#39e5c5"] ;
207 -> 223 ;
224 [label="Major <= 16.5\ngini = 0.752\nsamples = 40\nvalue = [3, 0, 0, 0, 9, 0, 3, 1, 10, 14]\nclass = Ultimate Grilled Cheese Sandwich (with bacon and tomato)", fillcolor="#fce5e9"] ;
206 -> 224 ;
225 [label="Time <= 14.5\ngini = 0.73\nsamples = 34\nvalue = [3, 0, 0, 0, 9, 0, 3, 1, 4, 14]\nclass = Ultimate Grilled Cheese Sandwich (with bacon and tomato)", fillcolor="#fad7de"] ;
224 -> 225 ;
226 [label="Major <= 14.0\ngini = 0.715\nsamples = 24\nvalue = [2, 0, 0, 0, 5, 0, 3, 1, 2, 11]\nclass = Ultimate Grilled Cheese Sandwich (with bacon and tomato)", fillcolor="#f7c0ca"] ;
225 -> 226 ;
227 [label="gini = 0.663\nsamples = 13\nvalue = [2, 0, 0, 0, 4, 0, 0, 0, 1, 6]\nclass = Ultimate Grilled Cheese Sandwich (with bacon and tomato)", fillcolor="#f9d3da"] ;
226 -> 227 ;
228 [label="gini = 0.694\nsamples = 11\nvalue = [0, 0, 0, 0, 1, 0, 3, 1, 1, 5]\nclass = Ultimate Grilled Cheese Sandwich (with bacon and tomato)", fillcolor="#f8ced5"] ;
226 -> 228 ;
229 [label="Major <= 14.0\ngini = 0.7\nsamples = 10\nvalue = [1, 0, 0, 0, 4, 0, 0, 0, 2, 3]\nclass = Indiana Buffalo Chicken Tacos (3 tacos)", fillcolor="#e3fbf7"] ;
225 -> 229 ;
230 [label="gini = 0.0\nsamples = 1\nvalue = [0, 0, 0, 0, 1, 0, 0, 0, 0, 0]\nclass = Indiana Buffalo Chicken Tacos (3 tacos)", fillcolor="#39e5c5"] ;
229 -> 230 ;
231 [label="gini = 0.716\nsamples = 9\nvalue = [1, 0, 0, 0, 3, 0, 0, 0, 2, 3]\nclass = Indiana Buffalo Chicken Tacos (3 tacos)", fillcolor="#ffffff"] ;
229 -> 231 ;
232 [label="gini = 0.0\nsamples = 6\nvalue = [0, 0, 0, 0, 0, 0, 0, 0, 6, 0]\nclass = Sweet Potato Fries", fillcolor="#e539c0"] ;
224 -> 232 ;
233 [label="Time <= 12.5\ngini = 0.761\nsamples = 833\nvalue = [24, 40, 269, 53, 36, 6, 17, 15, 279, 94]\nclass = Sweet Potato Fries", fillcolor="#fffbfe"] ;
1 -> 233 ;
234 [label="University <= 7.5\ngini = 0.625\nsamples = 361\nvalue = [19, 39, 209, 1, 0, 5, 13, 8, 53, 14]\nclass = Fried Catfish Basket", fillcolor="#bcf29b"] ;
233 -> 234 ;
235 [label="Major <= 16.5\ngini = 0.582\nsamples = 339\nvalue = [12, 37, 209, 1, 0, 1, 6, 8, 51, 14]\nclass = Fried Catfish Basket", fillcolor="#b7f192"] ;
234 -> 235 ;
236 [label="Major <= 7.5\ngini = 0.641\nsamples = 269\nvalue = [12, 37, 148, 1, 0, 0, 6, 3, 48, 14]\nclass = Fried Catfish Basket", fillcolor="#c3f3a5"] ;
235 -> 236 ;
237 [label="Major <= 0.5\ngini = 0.545\nsamples = 186\nvalue = [3, 11, 120, 1, 0, 0, 6, 3, 33, 9]\nclass = Fried Catfish Basket", fillcolor="#b4f08e"] ;
236 -> 237 ;
238 [label="University <= 4.0\ngini = 0.245\nsamples = 7\nvalue = [1, 6, 0, 0, 0, 0, 0, 0, 0, 0]\nclass = Cornbread Hush Puppies", fillcolor="#e7e95a"] ;
237 -> 238 ;
239 [label="gini = 0.0\nsamples = 1\nvalue = [1, 0, 0, 0, 0, 0, 0, 0, 0, 0]\nclass = Breaded Pork Tenderloin Sandwich", fillcolor="#e58139"] ;
238 -> 239 ;
240 [label="gini = 0.0\nsamples = 6\nvalue = [0, 6, 0, 0, 0, 0, 0, 0, 0, 0]\nclass = Cornbread Hush Puppies", fillcolor="#e2e539"] ;
238 -> 240 ;
241 [label="University <= 6.0\ngini = 0.512\nsamples = 179\nvalue = [2, 5, 120, 1, 0, 0, 6, 3, 33, 9]\nclass = Fried Catfish Basket", fillcolor="#b0f089"] ;
237 -> 241 ;
242 [label="Major <= 6.0\ngini = 0.484\nsamples = 171\nvalue = [2, 4, 119, 1, 0, 0, 6, 3, 28, 8]\nclass = Fried Catfish Basket", fillcolor="#abee81"] ;
241 -> 242 ;
243 [label="Major <= 1.5\ngini = 0.557\nsamples = 123\nvalue = [2, 4, 77, 1, 0, 0, 3, 2, 26, 8]\nclass = Fried Catfish Basket", fillcolor="#baf197"] ;
242 -> 243 ;
244 [label="Time <= 11.5\ngini = 0.21\nsamples = 26\nvalue = [0, 0, 23, 0, 0, 0, 0, 1, 2, 0]\nclass = Fried Catfish Basket", fillcolor="#8ce852"] ;
243 -> 244 ;
245 [label="Time <= 10.5\ngini = 0.117\nsamples = 16\nvalue = [0, 0, 15, 0, 0, 0, 0, 1, 0, 0]\nclass = Fried Catfish Basket", fillcolor="#84e746"] ;
244 -> 245 ;
246 [label="University <= 4.0\ngini = 0.245\nsamples = 7\nvalue = [0, 0, 6, 0, 0, 0, 0, 1, 0, 0]\nclass = Fried Catfish Basket", fillcolor="#91e95a"] ;
245 -> 246 ;
247 [label="Time <= 9.5\ngini = 0.32\nsamples = 5\nvalue = [0, 0, 4, 0, 0, 0, 0, 1, 0, 0]\nclass = Fried Catfish Basket", fillcolor="#9cec6a"] ;
246 -> 247 ;
248 [label="gini = 0.0\nsamples = 1\nvalue = [0, 0, 1, 0, 0, 0, 0, 0, 0, 0]\nclass = Fried Catfish Basket", fillcolor="#7be539"] ;
247 -> 248 ;
249 [label="gini = 0.375\nsamples = 4\nvalue = [0, 0, 3, 0, 0, 0, 0, 1, 0, 0]\nclass = Fried Catfish Basket", fillcolor="#a7ee7b"] ;
247 -> 249 ;
250 [label="gini = 0.0\nsamples = 2\nvalue = [0, 0, 2, 0, 0, 0, 0, 0, 0, 0]\nclass = Fried Catfish Basket", fillcolor="#7be539"] ;
246 -> 250 ;
251 [label="gini = 0.0\nsamples = 9\nvalue = [0, 0, 9, 0, 0, 0, 0, 0, 0, 0]\nclass = Fried Catfish Basket", fillcolor="#7be539"] ;
245 -> 251 ;
252 [label="University <= 4.0\ngini = 0.32\nsamples = 10\nvalue = [0, 0, 8, 0, 0, 0, 0, 0, 2, 0]\nclass = Fried Catfish Basket", fillcolor="#9cec6a"] ;
244 -> 252 ;
253 [label="gini = 0.0\nsamples = 1\nvalue = [0, 0, 1, 0, 0, 0, 0, 0, 0, 0]\nclass = Fried Catfish Basket", fillcolor="#7be539"] ;
252 -> 253 ;
254 [label="gini = 0.346\nsamples = 9\nvalue = [0, 0, 7, 0, 0, 0, 0, 0, 2, 0]\nclass = Fried Catfish Basket", fillcolor="#a1ec72"] ;
252 -> 254 ;
255 [label="Major <= 2.5\ngini = 0.619\nsamples = 97\nvalue = [2, 4, 54, 1, 0, 0, 3, 1, 24, 8]\nclass = Fried Catfish Basket", fillcolor="#c9f4ae"] ;
243 -> 255 ;
256 [label="University <= 4.0\ngini = 0.561\nsamples = 14\nvalue = [0, 0, 1, 0, 0, 0, 0, 0, 6, 7]\nclass = Ultimate Grilled Cheese Sandwich (with bacon and tomato)", fillcolor="#fce6ea"] ;
255 -> 256 ;
257 [label="Time <= 11.5\ngini = 0.542\nsamples = 12\nvalue = [0, 0, 1, 0, 0, 0, 0, 0, 4, 7]\nclass = Ultimate Grilled Cheese Sandwich (with bacon and tomato)", fillcolor="#f5b5c0"] ;
256 -> 257 ;
258 [label="gini = 0.32\nsamples = 5\nvalue = [0, 0, 0, 0, 0, 0, 0, 0, 1, 4]\nclass = Ultimate Grilled Cheese Sandwich (with bacon and tomato)", fillcolor="#ec6a82"] ;
257 -> 258 ;
259 [label="gini = 0.612\nsamples = 7\nvalue = [0, 0, 1, 0, 0, 0, 0, 0, 3, 3]\nclass = Sweet Potato Fries", fillcolor="#ffffff"] ;
257 -> 259 ;
260 [label="gini = 0.0\nsamples = 2\nvalue = [0, 0, 0, 0, 0, 0, 0, 0, 2, 0]\nclass = Sweet Potato Fries", fillcolor="#e539c0"] ;
256 -> 260 ;
261 [label="University <= 4.0\ngini = 0.541\nsamples = 83\nvalue = [2, 4, 53, 1, 0, 0, 3, 1, 18, 1]\nclass = Fried Catfish Basket", fillcolor="#b8f194"] ;
255 -> 261 ;
262 [label="Major <= 3.5\ngini = 0.461\nsamples = 67\nvalue = [2, 1, 48, 1, 0, 0, 3, 1, 10, 1]\nclass = Fried Catfish Basket", fillcolor="#a7ee7b"] ;
261 -> 262 ;
263 [label="Time <= 11.5\ngini = 0.332\nsamples = 37\nvalue = [0, 0, 30, 1, 0, 0, 3, 1, 2, 0]\nclass = Fried Catfish Basket", fillcolor="#96ea62"] ;
262 -> 263 ;
264 [label="gini = 0.0\nsamples = 11\nvalue = [0, 0, 11, 0, 0, 0, 0, 0, 0, 0]\nclass = Fried Catfish Basket", fillcolor="#7be539"] ;
263 -> 264 ;
265 [label="gini = 0.444\nsamples = 26\nvalue = [0, 0, 19, 1, 0, 0, 3, 1, 2, 0]\nclass = Fried Catfish Basket", fillcolor="#a3ed75"] ;
263 -> 265 ;
266 [label="Major <= 4.5\ngini = 0.562\nsamples = 30\nvalue = [2, 1, 18, 0, 0, 0, 0, 0, 8, 1]\nclass = Fried Catfish Basket", fillcolor="#c3f3a5"] ;
262 -> 266 ;
267 [label="Time <= 11.5\ngini = 0.64\nsamples = 5\nvalue = [2, 1, 0, 0, 0, 0, 0, 0, 2, 0]\nclass = Breaded Pork Tenderloin Sandwich", fillcolor="#ffffff"] ;
266 -> 267 ;
268 [label="gini = 0.5\nsamples = 2\nvalue = [1, 1, 0, 0, 0, 0, 0, 0, 0, 0]\nclass = Breaded Pork Tenderloin Sandwich", fillcolor="#ffffff"] ;
267 -> 268 ;
269 [label="gini = 0.444\nsamples = 3\nvalue = [1, 0, 0, 0, 0, 0, 0, 0, 2, 0]\nclass = Sweet Potato Fries", fillcolor="#f29ce0"] ;
267 -> 269 ;
270 [label="Time <= 11.5\ngini = 0.422\nsamples = 25\nvalue = [0, 0, 18, 0, 0, 0, 0, 0, 6, 1]\nclass = Fried Catfish Basket", fillcolor="#acef82"] ;
266 -> 270 ;
271 [label="Time <= 10.5\ngini = 0.37\nsamples = 9\nvalue = [0, 0, 7, 0, 0, 0, 0, 0, 1, 1]\nclass = Fried Catfish Basket", fillcolor="#9cec6a"] ;
270 -> 271 ;
272 [label="gini = 0.0\nsamples = 1\nvalue = [0, 0, 1, 0, 0, 0, 0, 0, 0, 0]\nclass = Fried Catfish Basket", fillcolor="#7be539"] ;
271 -> 272 ;
273 [label="gini = 0.406\nsamples = 8\nvalue = [0, 0, 6, 0, 0, 0, 0, 0, 1, 1]\nclass = Fried Catfish Basket", fillcolor="#a1ec72"] ;
271 -> 273 ;
274 [label="gini = 0.43\nsamples = 16\nvalue = [0, 0, 11, 0, 0, 0, 0, 0, 5, 0]\nclass = Fried Catfish Basket", fillcolor="#b7f193"] ;
270 -> 274 ;
275 [label="Time <= 10.5\ngini = 0.617\nsamples = 16\nvalue = [0, 3, 5, 0, 0, 0, 0, 0, 8, 0]\nclass = Sweet Potato Fries", fillcolor="#f8c9ee"] ;
261 -> 275 ;
276 [label="gini = 0.0\nsamples = 2\nvalue = [0, 2, 0, 0, 0, 0, 0, 0, 0, 0]\nclass = Cornbread Hush Puppies", fillcolor="#e2e539"] ;
275 -> 276 ;
277 [label="Major <= 3.5\ngini = 0.541\nsamples = 14\nvalue = [0, 1, 5, 0, 0, 0, 0, 0, 8, 0]\nclass = Sweet Potato Fries", fillcolor="#f6bdea"] ;
275 -> 277 ;
278 [label="Time <= 11.5\ngini = 0.49\nsamples = 7\nvalue = [0, 0, 4, 0, 0, 0, 0, 0, 3, 0]\nclass = Fried Catfish Basket", fillcolor="#def8ce"] ;
277 -> 278 ;
279 [label="gini = 0.0\nsamples = 1\nvalue = [0, 0, 0, 0, 0, 0, 0, 0, 1, 0]\nclass = Sweet Potato Fries", fillcolor="#e539c0"] ;
278 -> 279 ;
280 [label="gini = 0.444\nsamples = 6\nvalue = [0, 0, 4, 0, 0, 0, 0, 0, 2, 0]\nclass = Fried Catfish Basket", fillcolor="#bdf29c"] ;
278 -> 280 ;
281 [label="Time <= 11.5\ngini = 0.449\nsamples = 7\nvalue = [0, 1, 1, 0, 0, 0, 0, 0, 5, 0]\nclass = Sweet Potato Fries", fillcolor="#ee7bd5"] ;
277 -> 281 ;
282 [label="Major <= 4.5\ngini = 0.5\nsamples = 2\nvalue = [0, 1, 0, 0, 0, 0, 0, 0, 1, 0]\nclass = Cornbread Hush Puppies", fillcolor="#ffffff"] ;
281 -> 282 ;
283 [label="gini = 0.0\nsamples = 1\nvalue = [0, 1, 0, 0, 0, 0, 0, 0, 0, 0]\nclass = Cornbread Hush Puppies", fillcolor="#e2e539"] ;
282 -> 283 ;
284 [label="gini = 0.0\nsamples = 1\nvalue = [0, 0, 0, 0, 0, 0, 0, 0, 1, 0]\nclass = Sweet Potato Fries", fillcolor="#e539c0"] ;
282 -> 284 ;
285 [label="Major <= 4.5\ngini = 0.32\nsamples = 5\nvalue = [0, 0, 1, 0, 0, 0, 0, 0, 4, 0]\nclass = Sweet Potato Fries", fillcolor="#ec6ad0"] ;
281 -> 285 ;
286 [label="gini = 0.0\nsamples = 2\nvalue = [0, 0, 0, 0, 0, 0, 0, 0, 2, 0]\nclass = Sweet Potato Fries", fillcolor="#e539c0"] ;
285 -> 286 ;
287 [label="gini = 0.444\nsamples = 3\nvalue = [0, 0, 1, 0, 0, 0, 0, 0, 2, 0]\nclass = Sweet Potato Fries", fillcolor="#f29ce0"] ;
285 -> 287 ;
288 [label="Time <= 11.5\ngini = 0.228\nsamples = 48\nvalue = [0, 0, 42, 0, 0, 0, 3, 1, 2, 0]\nclass = Fried Catfish Basket", fillcolor="#8de853"] ;
242 -> 288 ;
289 [label="University <= 4.0\ngini = 0.111\nsamples = 17\nvalue = [0, 0, 16, 0, 0, 0, 0, 0, 1, 0]\nclass = Fried Catfish Basket", fillcolor="#83e745"] ;
288 -> 289 ;
290 [label="gini = 0.0\nsamples = 14\nvalue = [0, 0, 14, 0, 0, 0, 0, 0, 0, 0]\nclass = Fried Catfish Basket", fillcolor="#7be539"] ;
289 -> 290 ;
291 [label="gini = 0.444\nsamples = 3\nvalue = [0, 0, 2, 0, 0, 0, 0, 0, 1, 0]\nclass = Fried Catfish Basket", fillcolor="#bdf29c"] ;
289 -> 291 ;
292 [label="University <= 4.0\ngini = 0.285\nsamples = 31\nvalue = [0, 0, 26, 0, 0, 0, 3, 1, 1, 0]\nclass = Fried Catfish Basket", fillcolor="#93ea5c"] ;
288 -> 292 ;
293 [label="gini = 0.41\nsamples = 20\nvalue = [0, 0, 15, 0, 0, 0, 3, 1, 1, 0]\nclass = Fried Catfish Basket", fillcolor="#a2ed73"] ;
292 -> 293 ;
294 [label="gini = 0.0\nsamples = 11\nvalue = [0, 0, 11, 0, 0, 0, 0, 0, 0, 0]\nclass = Fried Catfish Basket", fillcolor="#7be539"] ;
292 -> 294 ;
295 [label="Major <= 4.5\ngini = 0.562\nsamples = 8\nvalue = [0, 1, 1, 0, 0, 0, 0, 0, 5, 1]\nclass = Sweet Potato Fries", fillcolor="#f08edb"] ;
241 -> 295 ;
296 [label="Time <= 11.0\ngini = 0.667\nsamples = 3\nvalue = [0, 1, 1, 0, 0, 0, 0, 0, 0, 1]\nclass = Cornbread Hush Puppies", fillcolor="#ffffff"] ;
295 -> 296 ;
297 [label="gini = 0.0\nsamples = 1\nvalue = [0, 1, 0, 0, 0, 0, 0, 0, 0, 0]\nclass = Cornbread Hush Puppies", fillcolor="#e2e539"] ;
296 -> 297 ;
298 [label="Major <= 2.0\ngini = 0.5\nsamples = 2\nvalue = [0, 0, 1, 0, 0, 0, 0, 0, 0, 1]\nclass = Fried Catfish Basket", fillcolor="#ffffff"] ;
296 -> 298 ;
299 [label="gini = 0.0\nsamples = 1\nvalue = [0, 0, 1, 0, 0, 0, 0, 0, 0, 0]\nclass = Fried Catfish Basket", fillcolor="#7be539"] ;
298 -> 299 ;
300 [label="gini = 0.0\nsamples = 1\nvalue = [0, 0, 0, 0, 0, 0, 0, 0, 0, 1]\nclass = Ultimate Grilled Cheese Sandwich (with bacon and tomato)", fillcolor="#e53958"] ;
298 -> 300 ;
301 [label="gini = 0.0\nsamples = 5\nvalue = [0, 0, 0, 0, 0, 0, 0, 0, 5, 0]\nclass = Sweet Potato Fries", fillcolor="#e539c0"] ;
295 -> 301 ;
302 [label="Major <= 13.5\ngini = 0.74\nsamples = 83\nvalue = [9, 26, 28, 0, 0, 0, 0, 0, 15, 5]\nclass = Fried Catfish Basket", fillcolor="#fafef8"] ;
236 -> 302 ;
303 [label="Major <= 11.5\ngini = 0.55\nsamples = 42\nvalue = [9, 26, 1, 0, 0, 0, 0, 0, 6, 0]\nclass = Cornbread Hush Puppies", fillcolor="#f0f299"] ;
302 -> 303 ;
304 [label="Time <= 9.5\ngini = 0.362\nsamples = 31\nvalue = [6, 24, 1, 0, 0, 0, 0, 0, 0, 0]\nclass = Cornbread Hush Puppies", fillcolor="#eaec70"] ;
303 -> 304 ;
305 [label="gini = 0.0\nsamples = 3\nvalue = [3, 0, 0, 0, 0, 0, 0, 0, 0, 0]\nclass = Breaded Pork Tenderloin Sandwich", fillcolor="#e58139"] ;
304 -> 305 ;
306 [label="Major <= 10.5\ngini = 0.253\nsamples = 28\nvalue = [3, 24, 1, 0, 0, 0, 0, 0, 0, 0]\nclass = Cornbread Hush Puppies", fillcolor="#e7e959"] ;
304 -> 306 ;
307 [label="Major <= 8.5\ngini = 0.381\nsamples = 17\nvalue = [3, 13, 1, 0, 0, 0, 0, 0, 0, 0]\nclass = Cornbread Hush Puppies", fillcolor="#eaec72"] ;
306 -> 307 ;
308 [label="University <= 4.0\ngini = 0.133\nsamples = 14\nvalue = [1, 13, 0, 0, 0, 0, 0, 0, 0, 0]\nclass = Cornbread Hush Puppies", fillcolor="#e4e748"] ;
307 -> 308 ;
309 [label="Time <= 10.5\ngini = 0.245\nsamples = 7\nvalue = [1, 6, 0, 0, 0, 0, 0, 0, 0, 0]\nclass = Cornbread Hush Puppies", fillcolor="#e7e95a"] ;
308 -> 309 ;
310 [label="gini = 0.0\nsamples = 1\nvalue = [0, 1, 0, 0, 0, 0, 0, 0, 0, 0]\nclass = Cornbread Hush Puppies", fillcolor="#e2e539"] ;
309 -> 310 ;
311 [label="Time <= 11.5\ngini = 0.278\nsamples = 6\nvalue = [1, 5, 0, 0, 0, 0, 0, 0, 0, 0]\nclass = Cornbread Hush Puppies", fillcolor="#e8ea61"] ;
309 -> 311 ;
312 [label="gini = 0.32\nsamples = 5\nvalue = [1, 4, 0, 0, 0, 0, 0, 0, 0, 0]\nclass = Cornbread Hush Puppies", fillcolor="#e9ec6a"] ;
311 -> 312 ;
313 [label="gini = 0.0\nsamples = 1\nvalue = [0, 1, 0, 0, 0, 0, 0, 0, 0, 0]\nclass = Cornbread Hush Puppies", fillcolor="#e2e539"] ;
311 -> 313 ;
314 [label="gini = 0.0\nsamples = 7\nvalue = [0, 7, 0, 0, 0, 0, 0, 0, 0, 0]\nclass = Cornbread Hush Puppies", fillcolor="#e2e539"] ;
308 -> 314 ;
315 [label="Major <= 9.5\ngini = 0.444\nsamples = 3\nvalue = [2, 0, 1, 0, 0, 0, 0, 0, 0, 0]\nclass = Breaded Pork Tenderloin Sandwich", fillcolor="#f2c09c"] ;
307 -> 315 ;
316 [label="gini = 0.0\nsamples = 1\nvalue = [0, 0, 1, 0, 0, 0, 0, 0, 0, 0]\nclass = Fried Catfish Basket", fillcolor="#7be539"] ;
315 -> 316 ;
317 [label="gini = 0.0\nsamples = 2\nvalue = [2, 0, 0, 0, 0, 0, 0, 0, 0, 0]\nclass = Breaded Pork Tenderloin Sandwich", fillcolor="#e58139"] ;
315 -> 317 ;
318 [label="gini = 0.0\nsamples = 11\nvalue = [0, 11, 0, 0, 0, 0, 0, 0, 0, 0]\nclass = Cornbread Hush Puppies", fillcolor="#e2e539"] ;
306 -> 318 ;
319 [label="Time <= 10.5\ngini = 0.595\nsamples = 11\nvalue = [3, 2, 0, 0, 0, 0, 0, 0, 6, 0]\nclass = Sweet Potato Fries", fillcolor="#f5b5e7"] ;
303 -> 319 ;
320 [label="Major <= 12.5\ngini = 0.444\nsamples = 3\nvalue = [1, 2, 0, 0, 0, 0, 0, 0, 0, 0]\nclass = Cornbread Hush Puppies", fillcolor="#f0f29c"] ;
319 -> 320 ;
321 [label="gini = 0.0\nsamples = 2\nvalue = [0, 2, 0, 0, 0, 0, 0, 0, 0, 0]\nclass = Cornbread Hush Puppies", fillcolor="#e2e539"] ;
320 -> 321 ;
322 [label="gini = 0.0\nsamples = 1\nvalue = [1, 0, 0, 0, 0, 0, 0, 0, 0, 0]\nclass = Breaded Pork Tenderloin Sandwich", fillcolor="#e58139"] ;
320 -> 322 ;
323 [label="Major <= 12.5\ngini = 0.375\nsamples = 8\nvalue = [2, 0, 0, 0, 0, 0, 0, 0, 6, 0]\nclass = Sweet Potato Fries", fillcolor="#ee7bd5"] ;
319 -> 323 ;
324 [label="Time <= 11.5\ngini = 0.245\nsamples = 7\nvalue = [1, 0, 0, 0, 0, 0, 0, 0, 6, 0]\nclass = Sweet Potato Fries", fillcolor="#e95acb"] ;
323 -> 324 ;
325 [label="University <= 4.0\ngini = 0.444\nsamples = 3\nvalue = [1, 0, 0, 0, 0, 0, 0, 0, 2, 0]\nclass = Sweet Potato Fries", fillcolor="#f29ce0"] ;
324 -> 325 ;
326 [label="gini = 0.5\nsamples = 2\nvalue = [1, 0, 0, 0, 0, 0, 0, 0, 1, 0]\nclass = Breaded Pork Tenderloin Sandwich", fillcolor="#ffffff"] ;
325 -> 326 ;
327 [label="gini = 0.0\nsamples = 1\nvalue = [0, 0, 0, 0, 0, 0, 0, 0, 1, 0]\nclass = Sweet Potato Fries", fillcolor="#e539c0"] ;
325 -> 327 ;
328 [label="gini = 0.0\nsamples = 4\nvalue = [0, 0, 0, 0, 0, 0, 0, 0, 4, 0]\nclass = Sweet Potato Fries", fillcolor="#e539c0"] ;
324 -> 328 ;
329 [label="gini = 0.0\nsamples = 1\nvalue = [1, 0, 0, 0, 0, 0, 0, 0, 0, 0]\nclass = Breaded Pork Tenderloin Sandwich", fillcolor="#e58139"] ;
323 -> 329 ;
330 [label="Major <= 15.5\ngini = 0.503\nsamples = 41\nvalue = [0, 0, 27, 0, 0, 0, 0, 0, 9, 5]\nclass = Fried Catfish Basket", fillcolor="#b5f090"] ;
302 -> 330 ;
331 [label="gini = 0.0\nsamples = 12\nvalue = [0, 0, 12, 0, 0, 0, 0, 0, 0, 0]\nclass = Fried Catfish Basket", fillcolor="#7be539"] ;
330 -> 331 ;
332 [label="University <= 4.0\ngini = 0.606\nsamples = 29\nvalue = [0, 0, 15, 0, 0, 0, 0, 0, 9, 5]\nclass = Fried Catfish Basket", fillcolor="#d7f7c4"] ;
330 -> 332 ;
333 [label="Time <= 11.5\ngini = 0.538\nsamples = 24\nvalue = [0, 0, 15, 0, 0, 0, 0, 0, 4, 5]\nclass = Fried Catfish Basket", fillcolor="#baf197"] ;
332 -> 333 ;
334 [label="gini = 0.375\nsamples = 4\nvalue = [0, 0, 3, 0, 0, 0, 0, 0, 1, 0]\nclass = Fried Catfish Basket", fillcolor="#a7ee7b"] ;
333 -> 334 ;
335 [label="gini = 0.555\nsamples = 20\nvalue = [0, 0, 12, 0, 0, 0, 0, 0, 3, 5]\nclass = Fried Catfish Basket", fillcolor="#c1f3a3"] ;
333 -> 335 ;
336 [label="gini = 0.0\nsamples = 5\nvalue = [0, 0, 0, 0, 0, 0, 0, 0, 5, 0]\nclass = Sweet Potato Fries", fillcolor="#e539c0"] ;
332 -> 336 ;
337 [label="University <= 4.0\ngini = 0.233\nsamples = 70\nvalue = [0, 0, 61, 0, 0, 1, 0, 5, 3, 0]\nclass = Fried Catfish Basket", fillcolor="#8de954"] ;
235 -> 337 ;
338 [label="Major <= 18.5\ngini = 0.349\nsamples = 28\nvalue = [0, 0, 22, 0, 0, 1, 0, 5, 0, 0]\nclass = Fried Catfish Basket", fillcolor="#9dec6d"] ;
337 -> 338 ;
339 [label="Time <= 11.5\ngini = 0.302\nsamples = 27\nvalue = [0, 0, 22, 0, 0, 0, 0, 5, 0, 0]\nclass = Fried Catfish Basket", fillcolor="#99eb66"] ;
338 -> 339 ;
340 [label="Time <= 10.5\ngini = 0.188\nsamples = 19\nvalue = [0, 0, 17, 0, 0, 0, 0, 2, 0, 0]\nclass = Fried Catfish Basket", fillcolor="#8be850"] ;
339 -> 340 ;
341 [label="Time <= 9.5\ngini = 0.278\nsamples = 6\nvalue = [0, 0, 5, 0, 0, 0, 0, 1, 0, 0]\nclass = Fried Catfish Basket", fillcolor="#95ea61"] ;
340 -> 341 ;
342 [label="gini = 0.0\nsamples = 2\nvalue = [0, 0, 2, 0, 0, 0, 0, 0, 0, 0]\nclass = Fried Catfish Basket", fillcolor="#7be539"] ;
341 -> 342 ;
343 [label="Major <= 17.5\ngini = 0.375\nsamples = 4\nvalue = [0, 0, 3, 0, 0, 0, 0, 1, 0, 0]\nclass = Fried Catfish Basket", fillcolor="#a7ee7b"] ;
341 -> 343 ;
344 [label="gini = 0.444\nsamples = 3\nvalue = [0, 0, 2, 0, 0, 0, 0, 1, 0, 0]\nclass = Fried Catfish Basket", fillcolor="#bdf29c"] ;
343 -> 344 ;
345 [label="gini = 0.0\nsamples = 1\nvalue = [0, 0, 1, 0, 0, 0, 0, 0, 0, 0]\nclass = Fried Catfish Basket", fillcolor="#7be539"] ;
343 -> 345 ;
346 [label="gini = 0.142\nsamples = 13\nvalue = [0, 0, 12, 0, 0, 0, 0, 1, 0, 0]\nclass = Fried Catfish Basket", fillcolor="#86e749"] ;
340 -> 346 ;
347 [label="gini = 0.469\nsamples = 8\nvalue = [0, 0, 5, 0, 0, 0, 0, 3, 0, 0]\nclass = Fried Catfish Basket", fillcolor="#caf5b0"] ;
339 -> 347 ;
348 [label="gini = 0.0\nsamples = 1\nvalue = [0, 0, 0, 0, 0, 1, 0, 0, 0, 0]\nclass = Indiana Corn on the Cob (brushed with garlic butter)", fillcolor="#399de5"] ;
338 -> 348 ;
349 [label="University <= 6.0\ngini = 0.133\nsamples = 42\nvalue = [0, 0, 39, 0, 0, 0, 0, 0, 3, 0]\nclass = Fried Catfish Basket", fillcolor="#85e748"] ;
337 -> 349 ;
350 [label="Major <= 17.5\ngini = 0.056\nsamples = 35\nvalue = [0, 0, 34, 0, 0, 0, 0, 0, 1, 0]\nclass = Fried Catfish Basket", fillcolor="#7fe63f"] ;
349 -> 350 ;
351 [label="Time <= 11.5\ngini = 0.117\nsamples = 16\nvalue = [0, 0, 15, 0, 0, 0, 0, 0, 1, 0]\nclass = Fried Catfish Basket", fillcolor="#84e746"] ;
350 -> 351 ;
352 [label="gini = 0.0\nsamples = 3\nvalue = [0, 0, 3, 0, 0, 0, 0, 0, 0, 0]\nclass = Fried Catfish Basket", fillcolor="#7be539"] ;
351 -> 352 ;
353 [label="gini = 0.142\nsamples = 13\nvalue = [0, 0, 12, 0, 0, 0, 0, 0, 1, 0]\nclass = Fried Catfish Basket", fillcolor="#86e749"] ;
351 -> 353 ;
354 [label="gini = 0.0\nsamples = 19\nvalue = [0, 0, 19, 0, 0, 0, 0, 0, 0, 0]\nclass = Fried Catfish Basket", fillcolor="#7be539"] ;
350 -> 354 ;
355 [label="Major <= 17.5\ngini = 0.408\nsamples = 7\nvalue = [0, 0, 5, 0, 0, 0, 0, 0, 2, 0]\nclass = Fried Catfish Basket", fillcolor="#b0ef88"] ;
349 -> 355 ;
356 [label="gini = 0.0\nsamples = 2\nvalue = [0, 0, 0, 0, 0, 0, 0, 0, 2, 0]\nclass = Sweet Potato Fries", fillcolor="#e539c0"] ;
355 -> 356 ;
357 [label="gini = 0.0\nsamples = 5\nvalue = [0, 0, 5, 0, 0, 0, 0, 0, 0, 0]\nclass = Fried Catfish Basket", fillcolor="#7be539"] ;
355 -> 357 ;
358 [label="University <= 8.5\ngini = 0.748\nsamples = 22\nvalue = [7, 2, 0, 0, 0, 4, 7, 0, 2, 0]\nclass = Breaded Pork Tenderloin Sandwich", fillcolor="#ffffff"] ;
234 -> 358 ;
359 [label="Major <= 6.0\ngini = 0.648\nsamples = 18\nvalue = [7, 0, 0, 0, 0, 4, 7, 0, 0, 0]\nclass = Breaded Pork Tenderloin Sandwich", fillcolor="#ffffff"] ;
358 -> 359 ;
360 [label="Major <= 3.5\ngini = 0.469\nsamples = 8\nvalue = [3, 0, 0, 0, 0, 0, 5, 0, 0, 0]\nclass = Indiana Pork Chili", fillcolor="#b1b0f5"] ;
359 -> 360 ;
361 [label="Time <= 11.5\ngini = 0.375\nsamples = 4\nvalue = [3, 0, 0, 0, 0, 0, 1, 0, 0, 0]\nclass = Breaded Pork Tenderloin Sandwich", fillcolor="#eeab7b"] ;
360 -> 361 ;
362 [label="Major <= 2.5\ngini = 0.5\nsamples = 2\nvalue = [1, 0, 0, 0, 0, 0, 1, 0, 0, 0]\nclass = Breaded Pork Tenderloin Sandwich", fillcolor="#ffffff"] ;
361 -> 362 ;
363 [label="gini = 0.0\nsamples = 1\nvalue = [1, 0, 0, 0, 0, 0, 0, 0, 0, 0]\nclass = Breaded Pork Tenderloin Sandwich", fillcolor="#e58139"] ;
362 -> 363 ;
364 [label="gini = 0.0\nsamples = 1\nvalue = [0, 0, 0, 0, 0, 0, 1, 0, 0, 0]\nclass = Indiana Pork Chili", fillcolor="#3c39e5"] ;
362 -> 364 ;
365 [label="gini = 0.0\nsamples = 2\nvalue = [2, 0, 0, 0, 0, 0, 0, 0, 0, 0]\nclass = Breaded Pork Tenderloin Sandwich", fillcolor="#e58139"] ;
361 -> 365 ;
366 [label="gini = 0.0\nsamples = 4\nvalue = [0, 0, 0, 0, 0, 0, 4, 0, 0, 0]\nclass = Indiana Pork Chili", fillcolor="#3c39e5"] ;
360 -> 366 ;
367 [label="Major <= 9.5\ngini = 0.64\nsamples = 10\nvalue = [4, 0, 0, 0, 0, 4, 2, 0, 0, 0]\nclass = Breaded Pork Tenderloin Sandwich", fillcolor="#ffffff"] ;
359 -> 367 ;
368 [label="gini = 0.56\nsamples = 5\nvalue = [1, 0, 0, 0, 0, 3, 1, 0, 0, 0]\nclass = Indiana Corn on the Cob (brushed with garlic butter)", fillcolor="#9ccef2"] ;
367 -> 368 ;
369 [label="Major <= 16.5\ngini = 0.56\nsamples = 5\nvalue = [3, 0, 0, 0, 0, 1, 1, 0, 0, 0]\nclass = Breaded Pork Tenderloin Sandwich", fillcolor="#f2c09c"] ;
367 -> 369 ;
370 [label="gini = 0.0\nsamples = 2\nvalue = [2, 0, 0, 0, 0, 0, 0, 0, 0, 0]\nclass = Breaded Pork Tenderloin Sandwich", fillcolor="#e58139"] ;
369 -> 370 ;
371 [label="Time <= 11.0\ngini = 0.667\nsamples = 3\nvalue = [1, 0, 0, 0, 0, 1, 1, 0, 0, 0]\nclass = Breaded Pork Tenderloin Sandwich", fillcolor="#ffffff"] ;
369 -> 371 ;
372 [label="gini = 0.0\nsamples = 1\nvalue = [0, 0, 0, 0, 0, 0, 1, 0, 0, 0]\nclass = Indiana Pork Chili", fillcolor="#3c39e5"] ;
371 -> 372 ;
373 [label="gini = 0.5\nsamples = 2\nvalue = [1, 0, 0, 0, 0, 1, 0, 0, 0, 0]\nclass = Breaded Pork Tenderloin Sandwich", fillcolor="#ffffff"] ;
371 -> 373 ;
374 [label="Time <= 11.5\ngini = 0.5\nsamples = 4\nvalue = [0, 2, 0, 0, 0, 0, 0, 0, 2, 0]\nclass = Cornbread Hush Puppies", fillcolor="#ffffff"] ;
358 -> 374 ;
375 [label="gini = 0.0\nsamples = 2\nvalue = [0, 2, 0, 0, 0, 0, 0, 0, 0, 0]\nclass = Cornbread Hush Puppies", fillcolor="#e2e539"] ;
374 -> 375 ;
376 [label="gini = 0.0\nsamples = 2\nvalue = [0, 0, 0, 0, 0, 0, 0, 0, 2, 0]\nclass = Sweet Potato Fries", fillcolor="#e539c0"] ;
374 -> 376 ;
377 [label="University <= 7.5\ngini = 0.707\nsamples = 472\nvalue = [5, 1, 60, 52, 36, 1, 4, 7, 226, 80]\nclass = Sweet Potato Fries", fillcolor="#f5b5e8"] ;
233 -> 377 ;
378 [label="Time <= 14.5\ngini = 0.648\nsamples = 407\nvalue = [0, 1, 60, 51, 33, 0, 3, 1, 223, 35]\nclass = Sweet Potato Fries", fillcolor="#f3a2e1"] ;
377 -> 378 ;
379 [label="Time <= 13.5\ngini = 0.675\nsamples = 315\nvalue = [0, 1, 57, 48, 17, 0, 3, 1, 160, 28]\nclass = Sweet Potato Fries", fillcolor="#f5b0e6"] ;
378 -> 379 ;
380 [label="Major <= 14.0\ngini = 0.643\nsamples = 157\nvalue = [0, 1, 41, 13, 1, 0, 3, 1, 82, 15]\nclass = Sweet Potato Fries", fillcolor="#f6b9e9"] ;
379 -> 380 ;
381 [label="Major <= 1.5\ngini = 0.581\nsamples = 107\nvalue = [0, 1, 29, 10, 0, 0, 2, 1, 62, 2]\nclass = Sweet Potato Fries", fillcolor="#f4abe4"] ;
380 -> 381 ;
382 [label="University <= 4.0\ngini = 0.628\nsamples = 11\nvalue = [0, 0, 5, 2, 0, 0, 0, 0, 4, 0]\nclass = Fried Catfish Basket", fillcolor="#ecfbe3"] ;
381 -> 382 ;
383 [label="gini = 0.48\nsamples = 5\nvalue = [0, 0, 0, 2, 0, 0, 0, 0, 3, 0]\nclass = Sweet Potato Fries", fillcolor="#f6bdea"] ;
382 -> 383 ;
384 [label="University <= 6.0\ngini = 0.278\nsamples = 6\nvalue = [0, 0, 5, 0, 0, 0, 0, 0, 1, 0]\nclass = Fried Catfish Basket", fillcolor="#95ea61"] ;
382 -> 384 ;
385 [label="gini = 0.375\nsamples = 4\nvalue = [0, 0, 3, 0, 0, 0, 0, 0, 1, 0]\nclass = Fried Catfish Basket", fillcolor="#a7ee7b"] ;
384 -> 385 ;
386 [label="gini = 0.0\nsamples = 2\nvalue = [0, 0, 2, 0, 0, 0, 0, 0, 0, 0]\nclass = Fried Catfish Basket", fillcolor="#7be539"] ;
384 -> 386 ;
387 [label="Major <= 2.5\ngini = 0.564\nsamples = 96\nvalue = [0, 1, 24, 8, 0, 0, 2, 1, 58, 2]\nclass = Sweet Potato Fries", fillcolor="#f3a2e1"] ;
381 -> 387 ;
388 [label="gini = 0.0\nsamples = 7\nvalue = [0, 0, 0, 0, 0, 0, 0, 0, 7, 0]\nclass = Sweet Potato Fries", fillcolor="#e539c0"] ;
387 -> 388 ;
389 [label="Major <= 11.0\ngini = 0.59\nsamples = 89\nvalue = [0, 1, 24, 8, 0, 0, 2, 1, 51, 2]\nclass = Sweet Potato Fries", fillcolor="#f4ade5"] ;
387 -> 389 ;
390 [label="Major <= 7.5\ngini = 0.604\nsamples = 85\nvalue = [0, 1, 24, 8, 0, 0, 2, 1, 47, 2]\nclass = Sweet Potato Fries", fillcolor="#f5b4e7"] ;
389 -> 390 ;
391 [label="University <= 6.0\ngini = 0.582\nsamples = 82\nvalue = [0, 0, 23, 8, 0, 0, 2, 1, 47, 1]\nclass = Sweet Potato Fries", fillcolor="#f4aee5"] ;
390 -> 391 ;
392 [label="University <= 4.0\ngini = 0.59\nsamples = 80\nvalue = [0, 0, 23, 8, 0, 0, 2, 1, 45, 1]\nclass = Sweet Potato Fries", fillcolor="#f5b3e7"] ;
391 -> 392 ;
393 [label="Major <= 6.0\ngini = 0.596\nsamples = 51\nvalue = [0, 0, 13, 6, 0, 0, 2, 1, 29, 0]\nclass = Sweet Potato Fries", fillcolor="#f4ace4"] ;
392 -> 393 ;
394 [label="Major <= 3.5\ngini = 0.617\nsamples = 36\nvalue = [0, 0, 11, 3, 0, 0, 2, 1, 19, 0]\nclass = Sweet Potato Fries", fillcolor="#f7c0eb"] ;
393 -> 394 ;
395 [label="gini = 0.671\nsamples = 17\nvalue = [0, 0, 5, 2, 0, 0, 1, 1, 8, 0]\nclass = Sweet Potato Fries", fillcolor="#f8ceef"] ;
394 -> 395 ;
396 [label="Major <= 4.5\ngini = 0.56\nsamples = 19\nvalue = [0, 0, 6, 1, 0, 0, 1, 0, 11, 0]\nclass = Sweet Potato Fries", fillcolor="#f5b3e7"] ;
394 -> 396 ;
397 [label="gini = 0.0\nsamples = 1\nvalue = [0, 0, 0, 0, 0, 0, 0, 0, 1, 0]\nclass = Sweet Potato Fries", fillcolor="#e539c0"] ;
396 -> 397 ;
398 [label="gini = 0.574\nsamples = 18\nvalue = [0, 0, 6, 1, 0, 0, 1, 0, 10, 0]\nclass = Sweet Potato Fries", fillcolor="#f6bdea"] ;
396 -> 398 ;
399 [label="gini = 0.498\nsamples = 15\nvalue = [0, 0, 2, 3, 0, 0, 0, 0, 10, 0]\nclass = Sweet Potato Fries", fillcolor="#f08cda"] ;
393 -> 399 ;
400 [label="Major <= 6.0\ngini = 0.571\nsamples = 29\nvalue = [0, 0, 10, 2, 0, 0, 0, 0, 16, 1]\nclass = Sweet Potato Fries", fillcolor="#f7c0eb"] ;
392 -> 400 ;
401 [label="Major <= 4.0\ngini = 0.578\nsamples = 15\nvalue = [0, 0, 3, 2, 0, 0, 0, 0, 9, 1]\nclass = Sweet Potato Fries", fillcolor="#f29ce0"] ;
400 -> 401 ;
402 [label="gini = 0.46\nsamples = 10\nvalue = [0, 0, 2, 1, 0, 0, 0, 0, 7, 0]\nclass = Sweet Potato Fries", fillcolor="#ef83d8"] ;
401 -> 402 ;
403 [label="gini = 0.72\nsamples = 5\nvalue = [0, 0, 1, 1, 0, 0, 0, 0, 2, 1]\nclass = Sweet Potato Fries", fillcolor="#f8ceef"] ;
401 -> 403 ;
404 [label="gini = 0.5\nsamples = 14\nvalue = [0, 0, 7, 0, 0, 0, 0, 0, 7, 0]\nclass = Fried Catfish Basket", fillcolor="#ffffff"] ;
400 -> 404 ;
405 [label="gini = 0.0\nsamples = 2\nvalue = [0, 0, 0, 0, 0, 0, 0, 0, 2, 0]\nclass = Sweet Potato Fries", fillcolor="#e539c0"] ;
391 -> 405 ;
406 [label="Major <= 8.5\ngini = 0.667\nsamples = 3\nvalue = [0, 1, 1, 0, 0, 0, 0, 0, 0, 1]\nclass = Cornbread Hush Puppies", fillcolor="#ffffff"] ;
390 -> 406 ;
407 [label="gini = 0.0\nsamples = 1\nvalue = [0, 0, 0, 0, 0, 0, 0, 0, 0, 1]\nclass = Ultimate Grilled Cheese Sandwich (with bacon and tomato)", fillcolor="#e53958"] ;
406 -> 407 ;
408 [label="University <= 6.0\ngini = 0.5\nsamples = 2\nvalue = [0, 1, 1, 0, 0, 0, 0, 0, 0, 0]\nclass = Cornbread Hush Puppies", fillcolor="#ffffff"] ;
406 -> 408 ;
409 [label="gini = 0.0\nsamples = 1\nvalue = [0, 1, 0, 0, 0, 0, 0, 0, 0, 0]\nclass = Cornbread Hush Puppies", fillcolor="#e2e539"] ;
408 -> 409 ;
410 [label="gini = 0.0\nsamples = 1\nvalue = [0, 0, 1, 0, 0, 0, 0, 0, 0, 0]\nclass = Fried Catfish Basket", fillcolor="#7be539"] ;
408 -> 410 ;
411 [label="gini = 0.0\nsamples = 4\nvalue = [0, 0, 0, 0, 0, 0, 0, 0, 4, 0]\nclass = Sweet Potato Fries", fillcolor="#e539c0"] ;
389 -> 411 ;
412 [label="University <= 4.0\ngini = 0.71\nsamples = 50\nvalue = [0, 0, 12, 3, 1, 0, 1, 0, 20, 13]\nclass = Sweet Potato Fries", fillcolor="#fadaf3"] ;
380 -> 412 ;
413 [label="Major <= 16.5\ngini = 0.662\nsamples = 30\nvalue = [0, 0, 3, 2, 0, 0, 1, 0, 11, 13]\nclass = Ultimate Grilled Cheese Sandwich (with bacon and tomato)", fillcolor="#fceaed"] ;
412 -> 413 ;
414 [label="gini = 0.587\nsamples = 24\nvalue = [0, 0, 2, 0, 0, 0, 1, 0, 8, 13]\nclass = Ultimate Grilled Cheese Sandwich (with bacon and tomato)", fillcolor="#f7c1cb"] ;
413 -> 414 ;
415 [label="gini = 0.611\nsamples = 6\nvalue = [0, 0, 1, 2, 0, 0, 0, 0, 3, 0]\nclass = Sweet Potato Fries", fillcolor="#f8ceef"] ;
413 -> 415 ;
416 [label="Major <= 16.5\ngini = 0.59\nsamples = 20\nvalue = [0, 0, 9, 1, 1, 0, 0, 0, 9, 0]\nclass = Fried Catfish Basket", fillcolor="#ffffff"] ;
412 -> 416 ;
417 [label="University <= 6.0\ngini = 0.5\nsamples = 6\nvalue = [0, 0, 1, 1, 0, 0, 0, 0, 4, 0]\nclass = Sweet Potato Fries", fillcolor="#ef88d9"] ;
416 -> 417 ;
418 [label="gini = 0.56\nsamples = 5\nvalue = [0, 0, 1, 1, 0, 0, 0, 0, 3, 0]\nclass = Sweet Potato Fries", fillcolor="#f29ce0"] ;
417 -> 418 ;
419 [label="gini = 0.0\nsamples = 1\nvalue = [0, 0, 0, 0, 0, 0, 0, 0, 1, 0]\nclass = Sweet Potato Fries", fillcolor="#e539c0"] ;
417 -> 419 ;
420 [label="University <= 6.0\ngini = 0.541\nsamples = 14\nvalue = [0, 0, 8, 0, 1, 0, 0, 0, 5, 0]\nclass = Fried Catfish Basket", fillcolor="#d3f6bd"] ;
416 -> 420 ;
421 [label="Major <= 18.5\ngini = 0.496\nsamples = 11\nvalue = [0, 0, 6, 0, 0, 0, 0, 0, 5, 0]\nclass = Fried Catfish Basket", fillcolor="#e9fbde"] ;
420 -> 421 ;
422 [label="Major <= 17.5\ngini = 0.444\nsamples = 9\nvalue = [0, 0, 6, 0, 0, 0, 0, 0, 3, 0]\nclass = Fried Catfish Basket", fillcolor="#bdf29c"] ;
421 -> 422 ;
423 [label="gini = 0.49\nsamples = 7\nvalue = [0, 0, 4, 0, 0, 0, 0, 0, 3, 0]\nclass = Fried Catfish Basket", fillcolor="#def8ce"] ;
422 -> 423 ;
424 [label="gini = 0.0\nsamples = 2\nvalue = [0, 0, 2, 0, 0, 0, 0, 0, 0, 0]\nclass = Fried Catfish Basket", fillcolor="#7be539"] ;
422 -> 424 ;
425 [label="gini = 0.0\nsamples = 2\nvalue = [0, 0, 0, 0, 0, 0, 0, 0, 2, 0]\nclass = Sweet Potato Fries", fillcolor="#e539c0"] ;
421 -> 425 ;
426 [label="Major <= 17.5\ngini = 0.444\nsamples = 3\nvalue = [0, 0, 2, 0, 1, 0, 0, 0, 0, 0]\nclass = Fried Catfish Basket", fillcolor="#bdf29c"] ;
420 -> 426 ;
427 [label="gini = 0.0\nsamples = 1\nvalue = [0, 0, 0, 0, 1, 0, 0, 0, 0, 0]\nclass = Indiana Buffalo Chicken Tacos (3 tacos)", fillcolor="#39e5c5"] ;
426 -> 427 ;
428 [label="gini = 0.0\nsamples = 2\nvalue = [0, 0, 2, 0, 0, 0, 0, 0, 0, 0]\nclass = Fried Catfish Basket", fillcolor="#7be539"] ;
426 -> 428 ;
429 [label="Major <= 16.5\ngini = 0.68\nsamples = 158\nvalue = [0, 0, 16, 35, 16, 0, 0, 0, 78, 13]\nclass = Sweet Potato Fries", fillcolor="#f6bae9"] ;
379 -> 429 ;
430 [label="University <= 4.5\ngini = 0.694\nsamples = 140\nvalue = [0, 0, 11, 35, 16, 0, 0, 0, 65, 13]\nclass = Sweet Potato Fries", fillcolor="#f8c6ed"] ;
429 -> 430 ;
431 [label="Major <= 7.5\ngini = 0.755\nsamples = 81\nvalue = [0, 0, 7, 17, 15, 0, 0, 0, 30, 12]\nclass = Sweet Potato Fries", fillcolor="#fad7f2"] ;
430 -> 431 ;
432 [label="Major <= 6.0\ngini = 0.684\nsamples = 51\nvalue = [0, 0, 6, 13, 6, 0, 0, 0, 24, 2]\nclass = Sweet Potato Fries", fillcolor="#f7c6ed"] ;
431 -> 432 ;
433 [label="Major <= 0.5\ngini = 0.708\nsamples = 47\nvalue = [0, 0, 6, 13, 6, 0, 0, 0, 20, 2]\nclass = Sweet Potato Fries", fillcolor="#fad6f2"] ;
432 -> 433 ;
434 [label="gini = 0.0\nsamples = 1\nvalue = [0, 0, 0, 0, 1, 0, 0, 0, 0, 0]\nclass = Indiana Buffalo Chicken Tacos (3 tacos)", fillcolor="#39e5c5"] ;
433 -> 434 ;
435 [label="Major <= 3.5\ngini = 0.7\nsamples = 46\nvalue = [0, 0, 6, 13, 5, 0, 0, 0, 20, 2]\nclass = Sweet Potato Fries", fillcolor="#f9d5f2"] ;
433 -> 435 ;
436 [label="Major <= 1.5\ngini = 0.614\nsamples = 25\nvalue = [0, 0, 2, 8, 2, 0, 0, 0, 13, 0]\nclass = Sweet Potato Fries", fillcolor="#f7c5ec"] ;
435 -> 436 ;
437 [label="gini = 0.0\nsamples = 1\nvalue = [0, 0, 0, 0, 0, 0, 0, 0, 1, 0]\nclass = Sweet Potato Fries", fillcolor="#e539c0"] ;
436 -> 437 ;
438 [label="Major <= 2.5\ngini = 0.625\nsamples = 24\nvalue = [0, 0, 2, 8, 2, 0, 0, 0, 12, 0]\nclass = Sweet Potato Fries", fillcolor="#f8ceef"] ;
436 -> 438 ;
439 [label="gini = 0.611\nsamples = 6\nvalue = [0, 0, 0, 2, 1, 0, 0, 0, 3, 0]\nclass = Sweet Potato Fries", fillcolor="#f8ceef"] ;
438 -> 439 ;
440 [label="gini = 0.623\nsamples = 18\nvalue = [0, 0, 2, 6, 1, 0, 0, 0, 9, 0]\nclass = Sweet Potato Fries", fillcolor="#f8ceef"] ;
438 -> 440 ;
441 [label="Major <= 4.5\ngini = 0.766\nsamples = 21\nvalue = [0, 0, 4, 5, 3, 0, 0, 0, 7, 2]\nclass = Sweet Potato Fries", fillcolor="#fce6f7"] ;
435 -> 441 ;
442 [label="gini = 0.0\nsamples = 2\nvalue = [0, 0, 0, 0, 2, 0, 0, 0, 0, 0]\nclass = Indiana Buffalo Chicken Tacos (3 tacos)", fillcolor="#39e5c5"] ;
441 -> 442 ;
443 [label="gini = 0.737\nsamples = 19\nvalue = [0, 0, 4, 5, 1, 0, 0, 0, 7, 2]\nclass = Sweet Potato Fries", fillcolor="#fbe3f6"] ;
441 -> 443 ;
444 [label="gini = 0.0\nsamples = 4\nvalue = [0, 0, 0, 0, 0, 0, 0, 0, 4, 0]\nclass = Sweet Potato Fries", fillcolor="#e539c0"] ;
432 -> 444 ;
445 [label="Major <= 14.0\ngini = 0.74\nsamples = 30\nvalue = [0, 0, 1, 4, 9, 0, 0, 0, 6, 10]\nclass = Ultimate Grilled Cheese Sandwich (with bacon and tomato)", fillcolor="#fef6f7"] ;
431 -> 445 ;
446 [label="University <= 3.5\ngini = 0.486\nsamples = 12\nvalue = [0, 0, 0, 0, 8, 0, 0, 0, 1, 3]\nclass = Indiana Buffalo Chicken Tacos (3 tacos)", fillcolor="#91f1df"] ;
445 -> 446 ;
447 [label="Major <= 11.5\ngini = 0.198\nsamples = 9\nvalue = [0, 0, 0, 0, 8, 0, 0, 0, 1, 0]\nclass = Indiana Buffalo Chicken Tacos (3 tacos)", fillcolor="#52e8cc"] ;
446 -> 447 ;
448 [label="gini = 0.0\nsamples = 7\nvalue = [0, 0, 0, 0, 7, 0, 0, 0, 0, 0]\nclass = Indiana Buffalo Chicken Tacos (3 tacos)", fillcolor="#39e5c5"] ;
447 -> 448 ;
449 [label="gini = 0.5\nsamples = 2\nvalue = [0, 0, 0, 0, 1, 0, 0, 0, 1, 0]\nclass = Indiana Buffalo Chicken Tacos (3 tacos)", fillcolor="#ffffff"] ;
447 -> 449 ;
450 [label="gini = 0.0\nsamples = 3\nvalue = [0, 0, 0, 0, 0, 0, 0, 0, 0, 3]\nclass = Ultimate Grilled Cheese Sandwich (with bacon and tomato)", fillcolor="#e53958"] ;
446 -> 450 ;
451 [label="gini = 0.716\nsamples = 18\nvalue = [0, 0, 1, 4, 1, 0, 0, 0, 5, 7]\nclass = Ultimate Grilled Cheese Sandwich (with bacon and tomato)", fillcolor="#fbe1e5"] ;
445 -> 451 ;
452 [label="Major <= 2.5\ngini = 0.55\nsamples = 59\nvalue = [0, 0, 4, 18, 1, 0, 0, 0, 35, 1]\nclass = Sweet Potato Fries", fillcolor="#f4ade5"] ;
430 -> 452 ;
453 [label="Major <= 1.5\ngini = 0.54\nsamples = 10\nvalue = [0, 0, 1, 6, 0, 0, 0, 0, 3, 0]\nclass = Hoosier BBQ Pulled Pork Sandwich", fillcolor="#aaf4ba"] ;
452 -> 453 ;
454 [label="University <= 6.0\ngini = 0.444\nsamples = 3\nvalue = [0, 0, 1, 0, 0, 0, 0, 0, 2, 0]\nclass = Sweet Potato Fries", fillcolor="#f29ce0"] ;
453 -> 454 ;
455 [label="gini = 0.0\nsamples = 2\nvalue = [0, 0, 0, 0, 0, 0, 0, 0, 2, 0]\nclass = Sweet Potato Fries", fillcolor="#e539c0"] ;
454 -> 455 ;
456 [label="gini = 0.0\nsamples = 1\nvalue = [0, 0, 1, 0, 0, 0, 0, 0, 0, 0]\nclass = Fried Catfish Basket", fillcolor="#7be539"] ;
454 -> 456 ;
457 [label="gini = 0.245\nsamples = 7\nvalue = [0, 0, 0, 6, 0, 0, 0, 0, 1, 0]\nclass = Hoosier BBQ Pulled Pork Sandwich", fillcolor="#5ae979"] ;
453 -> 457 ;
458 [label="Major <= 3.5\ngini = 0.509\nsamples = 49\nvalue = [0, 0, 3, 12, 1, 0, 0, 0, 32, 1]\nclass = Sweet Potato Fries", fillcolor="#f194dd"] ;
452 -> 458 ;
459 [label="University <= 6.0\ngini = 0.391\nsamples = 13\nvalue = [0, 0, 1, 1, 0, 0, 0, 0, 10, 1]\nclass = Sweet Potato Fries", fillcolor="#ec6bd0"] ;
458 -> 459 ;
460 [label="gini = 0.34\nsamples = 10\nvalue = [0, 0, 1, 1, 0, 0, 0, 0, 8, 0]\nclass = Sweet Potato Fries", fillcolor="#eb65ce"] ;
459 -> 460 ;
461 [label="gini = 0.444\nsamples = 3\nvalue = [0, 0, 0, 0, 0, 0, 0, 0, 2, 1]\nclass = Sweet Potato Fries", fillcolor="#f29ce0"] ;
459 -> 461 ;
462 [label="Major <= 4.5\ngini = 0.529\nsamples = 36\nvalue = [0, 0, 2, 11, 1, 0, 0, 0, 22, 0]\nclass = Sweet Potato Fries", fillcolor="#f4a8e3"] ;
458 -> 462 ;
463 [label="gini = 0.0\nsamples = 1\nvalue = [0, 0, 0, 1, 0, 0, 0, 0, 0, 0]\nclass = Hoosier BBQ Pulled Pork Sandwich", fillcolor="#39e55e"] ;
462 -> 463 ;
464 [label="University <= 6.0\ngini = 0.519\nsamples = 35\nvalue = [0, 0, 2, 10, 1, 0, 0, 0, 22, 0]\nclass = Sweet Potato Fries", fillcolor="#f3a0e1"] ;
462 -> 464 ;
465 [label="Major <= 6.0\ngini = 0.544\nsamples = 30\nvalue = [0, 0, 2, 9, 1, 0, 0, 0, 18, 0]\nclass = Sweet Potato Fries", fillcolor="#f4aae4"] ;
464 -> 465 ;
466 [label="gini = 0.49\nsamples = 7\nvalue = [0, 0, 0, 3, 0, 0, 0, 0, 4, 0]\nclass = Sweet Potato Fries", fillcolor="#f8ceef"] ;
465 -> 466 ;
467 [label="Major <= 10.0\ngini = 0.552\nsamples = 23\nvalue = [0, 0, 2, 6, 1, 0, 0, 0, 14, 0]\nclass = Sweet Potato Fries", fillcolor="#f3a2e1"] ;
465 -> 467 ;
468 [label="Major <= 7.5\ngini = 0.667\nsamples = 6\nvalue = [0, 0, 1, 1, 1, 0, 0, 0, 3, 0]\nclass = Sweet Potato Fries", fillcolor="#f5b0e6"] ;
467 -> 468 ;
469 [label="gini = 0.56\nsamples = 5\nvalue = [0, 0, 1, 1, 0, 0, 0, 0, 3, 0]\nclass = Sweet Potato Fries", fillcolor="#f29ce0"] ;
468 -> 469 ;
470 [label="gini = 0.0\nsamples = 1\nvalue = [0, 0, 0, 0, 1, 0, 0, 0, 0, 0]\nclass = Indiana Buffalo Chicken Tacos (3 tacos)", fillcolor="#39e5c5"] ;
468 -> 470 ;
471 [label="Major <= 15.0\ngini = 0.491\nsamples = 17\nvalue = [0, 0, 1, 5, 0, 0, 0, 0, 11, 0]\nclass = Sweet Potato Fries", fillcolor="#f29ce0"] ;
467 -> 471 ;
472 [label="Major <= 13.0\ngini = 0.375\nsamples = 4\nvalue = [0, 0, 0, 1, 0, 0, 0, 0, 3, 0]\nclass = Sweet Potato Fries", fillcolor="#ee7bd5"] ;
471 -> 472 ;
473 [label="gini = 0.444\nsamples = 3\nvalue = [0, 0, 0, 1, 0, 0, 0, 0, 2, 0]\nclass = Sweet Potato Fries", fillcolor="#f29ce0"] ;
472 -> 473 ;
474 [label="gini = 0.0\nsamples = 1\nvalue = [0, 0, 0, 0, 0, 0, 0, 0, 1, 0]\nclass = Sweet Potato Fries", fillcolor="#e539c0"] ;
472 -> 474 ;
475 [label="gini = 0.521\nsamples = 13\nvalue = [0, 0, 1, 4, 0, 0, 0, 0, 8, 0]\nclass = Sweet Potato Fries", fillcolor="#f3a7e3"] ;
471 -> 475 ;
476 [label="Major <= 8.0\ngini = 0.32\nsamples = 5\nvalue = [0, 0, 0, 1, 0, 0, 0, 0, 4, 0]\nclass = Sweet Potato Fries", fillcolor="#ec6ad0"] ;
464 -> 476 ;
477 [label="gini = 0.0\nsamples = 3\nvalue = [0, 0, 0, 0, 0, 0, 0, 0, 3, 0]\nclass = Sweet Potato Fries", fillcolor="#e539c0"] ;
476 -> 477 ;
478 [label="Major <= 13.5\ngini = 0.5\nsamples = 2\nvalue = [0, 0, 0, 1, 0, 0, 0, 0, 1, 0]\nclass = Hoosier BBQ Pulled Pork Sandwich", fillcolor="#ffffff"] ;
476 -> 478 ;
479 [label="gini = 0.0\nsamples = 1\nvalue = [0, 0, 0, 1, 0, 0, 0, 0, 0, 0]\nclass = Hoosier BBQ Pulled Pork Sandwich", fillcolor="#39e55e"] ;
478 -> 479 ;
480 [label="gini = 0.0\nsamples = 1\nvalue = [0, 0, 0, 0, 0, 0, 0, 0, 1, 0]\nclass = Sweet Potato Fries", fillcolor="#e539c0"] ;
478 -> 480 ;
481 [label="University <= 6.0\ngini = 0.401\nsamples = 18\nvalue = [0, 0, 5, 0, 0, 0, 0, 0, 13, 0]\nclass = Sweet Potato Fries", fillcolor="#ef85d8"] ;
429 -> 481 ;
482 [label="University <= 4.0\ngini = 0.245\nsamples = 14\nvalue = [0, 0, 2, 0, 0, 0, 0, 0, 12, 0]\nclass = Sweet Potato Fries", fillcolor="#e95acb"] ;
481 -> 482 ;
483 [label="gini = 0.0\nsamples = 8\nvalue = [0, 0, 0, 0, 0, 0, 0, 0, 8, 0]\nclass = Sweet Potato Fries", fillcolor="#e539c0"] ;
482 -> 483 ;
484 [label="Major <= 17.5\ngini = 0.444\nsamples = 6\nvalue = [0, 0, 2, 0, 0, 0, 0, 0, 4, 0]\nclass = Sweet Potato Fries", fillcolor="#f29ce0"] ;
482 -> 484 ;
485 [label="gini = 0.375\nsamples = 4\nvalue = [0, 0, 1, 0, 0, 0, 0, 0, 3, 0]\nclass = Sweet Potato Fries", fillcolor="#ee7bd5"] ;
484 -> 485 ;
486 [label="gini = 0.5\nsamples = 2\nvalue = [0, 0, 1, 0, 0, 0, 0, 0, 1, 0]\nclass = Fried Catfish Basket", fillcolor="#ffffff"] ;
484 -> 486 ;
487 [label="Major <= 17.5\ngini = 0.375\nsamples = 4\nvalue = [0, 0, 3, 0, 0, 0, 0, 0, 1, 0]\nclass = Fried Catfish Basket", fillcolor="#a7ee7b"] ;
481 -> 487 ;
488 [label="gini = 0.0\nsamples = 2\nvalue = [0, 0, 2, 0, 0, 0, 0, 0, 0, 0]\nclass = Fried Catfish Basket", fillcolor="#7be539"] ;
487 -> 488 ;
489 [label="gini = 0.5\nsamples = 2\nvalue = [0, 0, 1, 0, 0, 0, 0, 0, 1, 0]\nclass = Fried Catfish Basket", fillcolor="#ffffff"] ;
487 -> 489 ;
490 [label="Major <= 14.5\ngini = 0.493\nsamples = 92\nvalue = [0, 0, 3, 3, 16, 0, 0, 0, 63, 7]\nclass = Sweet Potato Fries", fillcolor="#ef85d8"] ;
378 -> 490 ;
491 [label="Major <= 7.5\ngini = 0.567\nsamples = 62\nvalue = [0, 0, 1, 2, 16, 0, 0, 0, 37, 6]\nclass = Sweet Potato Fries", fillcolor="#f3a5e2"] ;
490 -> 491 ;
492 [label="Major <= 4.5\ngini = 0.351\nsamples = 44\nvalue = [0, 0, 1, 2, 5, 0, 0, 0, 35, 1]\nclass = Sweet Potato Fries", fillcolor="#eb67cf"] ;
491 -> 492 ;
493 [label="Major <= 3.5\ngini = 0.518\nsamples = 23\nvalue = [0, 0, 1, 2, 5, 0, 0, 0, 15, 0]\nclass = Sweet Potato Fries", fillcolor="#f191dc"] ;
492 -> 493 ;
494 [label="Major <= 1.5\ngini = 0.36\nsamples = 19\nvalue = [0, 0, 1, 1, 2, 0, 0, 0, 15, 0]\nclass = Sweet Potato Fries", fillcolor="#eb68cf"] ;
493 -> 494 ;
495 [label="gini = 0.0\nsamples = 6\nvalue = [0, 0, 0, 0, 0, 0, 0, 0, 6, 0]\nclass = Sweet Potato Fries", fillcolor="#e539c0"] ;
494 -> 495 ;
496 [label="Major <= 2.5\ngini = 0.485\nsamples = 13\nvalue = [0, 0, 1, 1, 2, 0, 0, 0, 9, 0]\nclass = Sweet Potato Fries", fillcolor="#ee81d7"] ;
494 -> 496 ;
497 [label="Year <= 0.5\ngini = 0.625\nsamples = 4\nvalue = [0, 0, 0, 1, 2, 0, 0, 0, 1, 0]\nclass = Indiana Buffalo Chicken Tacos (3 tacos)", fillcolor="#bdf6ec"] ;
496 -> 497 ;
498 [label="gini = 0.0\nsamples = 1\nvalue = [0, 0, 0, 0, 0, 0, 0, 0, 1, 0]\nclass = Sweet Potato Fries", fillcolor="#e539c0"] ;
497 -> 498 ;
499 [label="University <= 4.0\ngini = 0.444\nsamples = 3\nvalue = [0, 0, 0, 1, 2, 0, 0, 0, 0, 0]\nclass = Indiana Buffalo Chicken Tacos (3 tacos)", fillcolor="#9cf2e2"] ;
497 -> 499 ;
500 [label="gini = 0.5\nsamples = 2\nvalue = [0, 0, 0, 1, 1, 0, 0, 0, 0, 0]\nclass = Hoosier BBQ Pulled Pork Sandwich", fillcolor="#ffffff"] ;
499 -> 500 ;
501 [label="gini = 0.0\nsamples = 1\nvalue = [0, 0, 0, 0, 1, 0, 0, 0, 0, 0]\nclass = Indiana Buffalo Chicken Tacos (3 tacos)", fillcolor="#39e5c5"] ;
499 -> 501 ;
502 [label="University <= 4.0\ngini = 0.198\nsamples = 9\nvalue = [0, 0, 1, 0, 0, 0, 0, 0, 8, 0]\nclass = Sweet Potato Fries", fillcolor="#e852c8"] ;
496 -> 502 ;
503 [label="gini = 0.0\nsamples = 3\nvalue = [0, 0, 0, 0, 0, 0, 0, 0, 3, 0]\nclass = Sweet Potato Fries", fillcolor="#e539c0"] ;
502 -> 503 ;
504 [label="Time <= 15.5\ngini = 0.278\nsamples = 6\nvalue = [0, 0, 1, 0, 0, 0, 0, 0, 5, 0]\nclass = Sweet Potato Fries", fillcolor="#ea61cd"] ;
502 -> 504 ;
505 [label="gini = 0.32\nsamples = 5\nvalue = [0, 0, 1, 0, 0, 0, 0, 0, 4, 0]\nclass = Sweet Potato Fries", fillcolor="#ec6ad0"] ;
504 -> 505 ;
506 [label="gini = 0.0\nsamples = 1\nvalue = [0, 0, 0, 0, 0, 0, 0, 0, 1, 0]\nclass = Sweet Potato Fries", fillcolor="#e539c0"] ;
504 -> 506 ;
507 [label="University <= 4.0\ngini = 0.375\nsamples = 4\nvalue = [0, 0, 0, 1, 3, 0, 0, 0, 0, 0]\nclass = Indiana Buffalo Chicken Tacos (3 tacos)", fillcolor="#7beed8"] ;
493 -> 507 ;
508 [label="gini = 0.0\nsamples = 1\nvalue = [0, 0, 0, 1, 0, 0, 0, 0, 0, 0]\nclass = Hoosier BBQ Pulled Pork Sandwich", fillcolor="#39e55e"] ;
507 -> 508 ;
509 [label="gini = 0.0\nsamples = 3\nvalue = [0, 0, 0, 0, 3, 0, 0, 0, 0, 0]\nclass = Indiana Buffalo Chicken Tacos (3 tacos)", fillcolor="#39e5c5"] ;
507 -> 509 ;
510 [label="Time <= 15.5\ngini = 0.091\nsamples = 21\nvalue = [0, 0, 0, 0, 0, 0, 0, 0, 20, 1]\nclass = Sweet Potato Fries", fillcolor="#e643c3"] ;
492 -> 510 ;
511 [label="gini = 0.0\nsamples = 16\nvalue = [0, 0, 0, 0, 0, 0, 0, 0, 16, 0]\nclass = Sweet Potato Fries", fillcolor="#e539c0"] ;
510 -> 511 ;
512 [label="Major <= 6.0\ngini = 0.32\nsamples = 5\nvalue = [0, 0, 0, 0, 0, 0, 0, 0, 4, 1]\nclass = Sweet Potato Fries", fillcolor="#ec6ad0"] ;
510 -> 512 ;
513 [label="gini = 0.5\nsamples = 2\nvalue = [0, 0, 0, 0, 0, 0, 0, 0, 1, 1]\nclass = Sweet Potato Fries", fillcolor="#ffffff"] ;
512 -> 513 ;
514 [label="gini = 0.0\nsamples = 3\nvalue = [0, 0, 0, 0, 0, 0, 0, 0, 3, 0]\nclass = Sweet Potato Fries", fillcolor="#e539c0"] ;
512 -> 514 ;
515 [label="Time <= 15.5\ngini = 0.537\nsamples = 18\nvalue = [0, 0, 0, 0, 11, 0, 0, 0, 2, 5]\nclass = Indiana Buffalo Chicken Tacos (3 tacos)", fillcolor="#a4f3e4"] ;
491 -> 515 ;
516 [label="University <= 3.5\ngini = 0.43\nsamples = 16\nvalue = [0, 0, 0, 0, 11, 0, 0, 0, 0, 5]\nclass = Indiana Buffalo Chicken Tacos (3 tacos)", fillcolor="#93f1df"] ;
515 -> 516 ;
517 [label="gini = 0.0\nsamples = 6\nvalue = [0, 0, 0, 0, 6, 0, 0, 0, 0, 0]\nclass = Indiana Buffalo Chicken Tacos (3 tacos)", fillcolor="#39e5c5"] ;
516 -> 517 ;
518 [label="University <= 4.5\ngini = 0.5\nsamples = 10\nvalue = [0, 0, 0, 0, 5, 0, 0, 0, 0, 5]\nclass = Indiana Buffalo Chicken Tacos (3 tacos)", fillcolor="#ffffff"] ;
516 -> 518 ;
519 [label="gini = 0.0\nsamples = 5\nvalue = [0, 0, 0, 0, 0, 0, 0, 0, 0, 5]\nclass = Ultimate Grilled Cheese Sandwich (with bacon and tomato)", fillcolor="#e53958"] ;
518 -> 519 ;
520 [label="gini = 0.0\nsamples = 5\nvalue = [0, 0, 0, 0, 5, 0, 0, 0, 0, 0]\nclass = Indiana Buffalo Chicken Tacos (3 tacos)", fillcolor="#39e5c5"] ;
518 -> 520 ;
521 [label="gini = 0.0\nsamples = 2\nvalue = [0, 0, 0, 0, 0, 0, 0, 0, 2, 0]\nclass = Sweet Potato Fries", fillcolor="#e539c0"] ;
515 -> 521 ;
522 [label="Major <= 16.5\ngini = 0.242\nsamples = 30\nvalue = [0, 0, 2, 1, 0, 0, 0, 0, 26, 1]\nclass = Sweet Potato Fries", fillcolor="#e955c9"] ;
490 -> 522 ;
523 [label="University <= 4.0\ngini = 0.367\nsamples = 14\nvalue = [0, 0, 1, 1, 0, 0, 0, 0, 11, 1]\nclass = Sweet Potato Fries", fillcolor="#eb67cf"] ;
522 -> 523 ;
524 [label="Time <= 15.5\ngini = 0.449\nsamples = 7\nvalue = [0, 0, 0, 1, 0, 0, 0, 0, 5, 1]\nclass = Sweet Potato Fries", fillcolor="#ee7bd5"] ;
523 -> 524 ;
525 [label="gini = 0.625\nsamples = 4\nvalue = [0, 0, 0, 1, 0, 0, 0, 0, 2, 1]\nclass = Sweet Potato Fries", fillcolor="#f6bdea"] ;
524 -> 525 ;
526 [label="gini = 0.0\nsamples = 3\nvalue = [0, 0, 0, 0, 0, 0, 0, 0, 3, 0]\nclass = Sweet Potato Fries", fillcolor="#e539c0"] ;
524 -> 526 ;
527 [label="University <= 6.0\ngini = 0.245\nsamples = 7\nvalue = [0, 0, 1, 0, 0, 0, 0, 0, 6, 0]\nclass = Sweet Potato Fries", fillcolor="#e95acb"] ;
523 -> 527 ;
528 [label="gini = 0.32\nsamples = 5\nvalue = [0, 0, 1, 0, 0, 0, 0, 0, 4, 0]\nclass = Sweet Potato Fries", fillcolor="#ec6ad0"] ;
527 -> 528 ;
529 [label="gini = 0.0\nsamples = 2\nvalue = [0, 0, 0, 0, 0, 0, 0, 0, 2, 0]\nclass = Sweet Potato Fries", fillcolor="#e539c0"] ;
527 -> 529 ;
530 [label="University <= 4.0\ngini = 0.117\nsamples = 16\nvalue = [0, 0, 1, 0, 0, 0, 0, 0, 15, 0]\nclass = Sweet Potato Fries", fillcolor="#e746c4"] ;
522 -> 530 ;
531 [label="gini = 0.0\nsamples = 10\nvalue = [0, 0, 0, 0, 0, 0, 0, 0, 10, 0]\nclass = Sweet Potato Fries", fillcolor="#e539c0"] ;
530 -> 531 ;
532 [label="Time <= 15.5\ngini = 0.278\nsamples = 6\nvalue = [0, 0, 1, 0, 0, 0, 0, 0, 5, 0]\nclass = Sweet Potato Fries", fillcolor="#ea61cd"] ;
530 -> 532 ;
533 [label="University <= 6.0\ngini = 0.375\nsamples = 4\nvalue = [0, 0, 1, 0, 0, 0, 0, 0, 3, 0]\nclass = Sweet Potato Fries", fillcolor="#ee7bd5"] ;
532 -> 533 ;
534 [label="gini = 0.444\nsamples = 3\nvalue = [0, 0, 1, 0, 0, 0, 0, 0, 2, 0]\nclass = Sweet Potato Fries", fillcolor="#f29ce0"] ;
533 -> 534 ;
535 [label="gini = 0.0\nsamples = 1\nvalue = [0, 0, 0, 0, 0, 0, 0, 0, 1, 0]\nclass = Sweet Potato Fries", fillcolor="#e539c0"] ;
533 -> 535 ;
536 [label="gini = 0.0\nsamples = 2\nvalue = [0, 0, 0, 0, 0, 0, 0, 0, 2, 0]\nclass = Sweet Potato Fries", fillcolor="#e539c0"] ;
532 -> 536 ;
537 [label="University <= 8.5\ngini = 0.501\nsamples = 65\nvalue = [5, 0, 0, 1, 3, 1, 1, 6, 3, 45]\nclass = Ultimate Grilled Cheese Sandwich (with bacon and tomato)", fillcolor="#ee7c91"] ;
377 -> 537 ;
538 [label="Major <= 3.5\ngini = 0.454\nsamples = 62\nvalue = [5, 0, 0, 1, 3, 1, 1, 6, 0, 45]\nclass = Ultimate Grilled Cheese Sandwich (with bacon and tomato)", fillcolor="#ed758b"] ;
537 -> 538 ;
539 [label="Major <= 2.5\ngini = 0.375\nsamples = 4\nvalue = [1, 0, 0, 0, 0, 0, 0, 3, 0, 0]\nclass = Sugar Cream Pie", fillcolor="#c27bee"] ;
538 -> 539 ;
540 [label="gini = 0.0\nsamples = 1\nvalue = [1, 0, 0, 0, 0, 0, 0, 0, 0, 0]\nclass = Breaded Pork Tenderloin Sandwich", fillcolor="#e58139"] ;
539 -> 540 ;
541 [label="gini = 0.0\nsamples = 3\nvalue = [0, 0, 0, 0, 0, 0, 0, 3, 0, 0]\nclass = Sugar Cream Pie", fillcolor="#a339e5"] ;
539 -> 541 ;
542 [label="Major <= 11.5\ngini = 0.387\nsamples = 58\nvalue = [4, 0, 0, 1, 3, 1, 1, 3, 0, 45]\nclass = Ultimate Grilled Cheese Sandwich (with bacon and tomato)", fillcolor="#eb6980"] ;
538 -> 542 ;
543 [label="Major <= 4.5\ngini = 0.226\nsamples = 49\nvalue = [2, 0, 0, 1, 2, 0, 1, 0, 0, 43]\nclass = Ultimate Grilled Cheese Sandwich (with bacon and tomato)", fillcolor="#e8526d"] ;
542 -> 543 ;
544 [label="gini = 0.0\nsamples = 31\nvalue = [0, 0, 0, 0, 0, 0, 0, 0, 0, 31]\nclass = Ultimate Grilled Cheese Sandwich (with bacon and tomato)", fillcolor="#e53958"] ;
543 -> 544 ;
545 [label="Major <= 9.0\ngini = 0.525\nsamples = 18\nvalue = [2, 0, 0, 1, 2, 0, 1, 0, 0, 12]\nclass = Ultimate Grilled Cheese Sandwich (with bacon and tomato)", fillcolor="#ef8397"] ;
543 -> 545 ;
546 [label="Time <= 13.5\ngini = 0.72\nsamples = 5\nvalue = [2, 0, 0, 1, 1, 0, 1, 0, 0, 0]\nclass = Breaded Pork Tenderloin Sandwich", fillcolor="#f8e0ce"] ;
545 -> 546 ;
547 [label="Major <= 6.0\ngini = 0.75\nsamples = 4\nvalue = [1, 0, 0, 1, 1, 0, 1, 0, 0, 0]\nclass = Breaded Pork Tenderloin Sandwich", fillcolor="#ffffff"] ;
546 -> 547 ;
548 [label="gini = 0.667\nsamples = 3\nvalue = [1, 0, 0, 0, 1, 0, 1, 0, 0, 0]\nclass = Breaded Pork Tenderloin Sandwich", fillcolor="#ffffff"] ;
547 -> 548 ;
549 [label="gini = 0.0\nsamples = 1\nvalue = [0, 0, 0, 1, 0, 0, 0, 0, 0, 0]\nclass = Hoosier BBQ Pulled Pork Sandwich", fillcolor="#39e55e"] ;
547 -> 549 ;
550 [label="gini = 0.0\nsamples = 1\nvalue = [1, 0, 0, 0, 0, 0, 0, 0, 0, 0]\nclass = Breaded Pork Tenderloin Sandwich", fillcolor="#e58139"] ;
546 -> 550 ;
551 [label="Time <= 13.5\ngini = 0.142\nsamples = 13\nvalue = [0, 0, 0, 0, 1, 0, 0, 0, 0, 12]\nclass = Ultimate Grilled Cheese Sandwich (with bacon and tomato)", fillcolor="#e74966"] ;
545 -> 551 ;
552 [label="gini = 0.278\nsamples = 6\nvalue = [0, 0, 0, 0, 1, 0, 0, 0, 0, 5]\nclass = Ultimate Grilled Cheese Sandwich (with bacon and tomato)", fillcolor="#ea6179"] ;
551 -> 552 ;
553 [label="gini = 0.0\nsamples = 7\nvalue = [0, 0, 0, 0, 0, 0, 0, 0, 0, 7]\nclass = Ultimate Grilled Cheese Sandwich (with bacon and tomato)", fillcolor="#e53958"] ;
551 -> 553 ;
554 [label="Time <= 13.5\ngini = 0.765\nsamples = 9\nvalue = [2, 0, 0, 0, 1, 1, 0, 3, 0, 2]\nclass = Sugar Cream Pie", fillcolor="#f2e3fb"] ;
542 -> 554 ;
555 [label="Major <= 16.5\ngini = 0.444\nsamples = 3\nvalue = [2, 0, 0, 0, 0, 1, 0, 0, 0, 0]\nclass = Breaded Pork Tenderloin Sandwich", fillcolor="#f2c09c"] ;
554 -> 555 ;
556 [label="gini = 0.0\nsamples = 2\nvalue = [2, 0, 0, 0, 0, 0, 0, 0, 0, 0]\nclass = Breaded Pork Tenderloin Sandwich", fillcolor="#e58139"] ;
555 -> 556 ;
557 [label="gini = 0.0\nsamples = 1\nvalue = [0, 0, 0, 0, 0, 1, 0, 0, 0, 0]\nclass = Indiana Corn on the Cob (brushed with garlic butter)", fillcolor="#399de5"] ;
555 -> 557 ;
558 [label="Major <= 14.0\ngini = 0.611\nsamples = 6\nvalue = [0, 0, 0, 0, 1, 0, 0, 3, 0, 2]\nclass = Sugar Cream Pie", fillcolor="#e8cef8"] ;
554 -> 558 ;
559 [label="Time <= 14.5\ngini = 0.625\nsamples = 4\nvalue = [0, 0, 0, 0, 1, 0, 0, 1, 0, 2]\nclass = Ultimate Grilled Cheese Sandwich (with bacon and tomato)", fillcolor="#f6bdc7"] ;
558 -> 559 ;
560 [label="gini = 0.0\nsamples = 1\nvalue = [0, 0, 0, 0, 1, 0, 0, 0, 0, 0]\nclass = Indiana Buffalo Chicken Tacos (3 tacos)", fillcolor="#39e5c5"] ;
559 -> 560 ;
561 [label="Time <= 15.5\ngini = 0.444\nsamples = 3\nvalue = [0, 0, 0, 0, 0, 0, 0, 1, 0, 2]\nclass = Ultimate Grilled Cheese Sandwich (with bacon and tomato)", fillcolor="#f29cac"] ;
559 -> 561 ;
562 [label="Year <= 0.5\ngini = 0.5\nsamples = 2\nvalue = [0, 0, 0, 0, 0, 0, 0, 1, 0, 1]\nclass = Sugar Cream Pie", fillcolor="#ffffff"] ;
561 -> 562 ;
563 [label="gini = 0.0\nsamples = 1\nvalue = [0, 0, 0, 0, 0, 0, 0, 0, 0, 1]\nclass = Ultimate Grilled Cheese Sandwich (with bacon and tomato)", fillcolor="#e53958"] ;
562 -> 563 ;
564 [label="gini = 0.0\nsamples = 1\nvalue = [0, 0, 0, 0, 0, 0, 0, 1, 0, 0]\nclass = Sugar Cream Pie", fillcolor="#a339e5"] ;
562 -> 564 ;
565 [label="gini = 0.0\nsamples = 1\nvalue = [0, 0, 0, 0, 0, 0, 0, 0, 0, 1]\nclass = Ultimate Grilled Cheese Sandwich (with bacon and tomato)", fillcolor="#e53958"] ;
561 -> 565 ;
566 [label="gini = 0.0\nsamples = 2\nvalue = [0, 0, 0, 0, 0, 0, 0, 2, 0, 0]\nclass = Sugar Cream Pie", fillcolor="#a339e5"] ;
558 -> 566 ;
567 [label="gini = 0.0\nsamples = 3\nvalue = [0, 0, 0, 0, 0, 0, 0, 0, 3, 0]\nclass = Sweet Potato Fries", fillcolor="#e539c0"] ;
537 -> 567 ;
568 [label="Time <= 12.5\ngini = 0.864\nsamples = 2294\nvalue = [108, 377, 81, 344, 337, 383, 73, 390, 97, 104]\nclass = Sugar Cream Pie", fillcolor="#fffeff"] ;
0 -> 568 [labeldistance=2.5, labelangle=-45, headlabel="False"] ;
569 [label="University <= 2.0\ngini = 0.802\nsamples = 1091\nvalue = [82, 285, 67, 12, 54, 352, 73, 89, 55, 22]\nclass = Indiana Corn on the Cob (brushed with garlic butter)", fillcolor="#eff7fd"] ;
568 -> 569 ;
570 [label="Major <= 16.5\ngini = 0.694\nsamples = 651\nvalue = [64, 66, 15, 4, 18, 336, 70, 50, 19, 9]\nclass = Indiana Corn on the Cob (brushed with garlic butter)", fillcolor="#a4d2f3"] ;
569 -> 570 ;
571 [label="University <= 0.5\ngini = 0.662\nsamples = 611\nvalue = [64, 64, 15, 1, 18, 336, 58, 32, 14, 9]\nclass = Indiana Corn on the Cob (brushed with garlic butter)", fillcolor="#9dcef2"] ;
570 -> 571 ;
572 [label="Time <= 10.5\ngini = 0.426\nsamples = 187\nvalue = [17, 8, 2, 0, 5, 140, 7, 6, 1, 1]\nclass = Indiana Corn on the Cob (brushed with garlic butter)", fillcolor="#70b8ec"] ;
571 -> 572 ;
573 [label="Major <= 4.5\ngini = 0.765\nsamples = 9\nvalue = [3, 1, 2, 0, 0, 2, 1, 0, 0, 0]\nclass = Breaded Pork Tenderloin Sandwich", fillcolor="#fbede3"] ;
572 -> 573 ;
574 [label="gini = 0.0\nsamples = 1\nvalue = [0, 0, 0, 0, 0, 1, 0, 0, 0, 0]\nclass = Indiana Corn on the Cob (brushed with garlic butter)", fillcolor="#399de5"] ;
573 -> 574 ;
575 [label="Time <= 9.5\ngini = 0.75\nsamples = 8\nvalue = [3, 1, 2, 0, 0, 1, 1, 0, 0, 0]\nclass = Breaded Pork Tenderloin Sandwich", fillcolor="#fbeade"] ;
573 -> 575 ;
576 [label="gini = 0.0\nsamples = 1\nvalue = [0, 0, 1, 0, 0, 0, 0, 0, 0, 0]\nclass = Fried Catfish Basket", fillcolor="#7be539"] ;
575 -> 576 ;
577 [label="Major <= 11.5\ngini = 0.735\nsamples = 7\nvalue = [3, 1, 1, 0, 0, 1, 1, 0, 0, 0]\nclass = Breaded Pork Tenderloin Sandwich", fillcolor="#f6d5bd"] ;
575 -> 577 ;
578 [label="Major <= 6.0\ngini = 0.8\nsamples = 5\nvalue = [1, 1, 1, 0, 0, 1, 1, 0, 0, 0]\nclass = Breaded Pork Tenderloin Sandwich", fillcolor="#ffffff"] ;
577 -> 578 ;
579 [label="gini = 0.0\nsamples = 1\nvalue = [1, 0, 0, 0, 0, 0, 0, 0, 0, 0]\nclass = Breaded Pork Tenderloin Sandwich", fillcolor="#e58139"] ;
578 -> 579 ;
580 [label="Major <= 9.0\ngini = 0.75\nsamples = 4\nvalue = [0, 1, 1, 0, 0, 1, 1, 0, 0, 0]\nclass = Cornbread Hush Puppies", fillcolor="#ffffff"] ;
578 -> 580 ;
581 [label="gini = 0.0\nsamples = 1\nvalue = [0, 0, 0, 0, 0, 0, 1, 0, 0, 0]\nclass = Indiana Pork Chili", fillcolor="#3c39e5"] ;
580 -> 581 ;
582 [label="gini = 0.667\nsamples = 3\nvalue = [0, 1, 1, 0, 0, 1, 0, 0, 0, 0]\nclass = Cornbread Hush Puppies", fillcolor="#ffffff"] ;
580 -> 582 ;
583 [label="gini = 0.0\nsamples = 2\nvalue = [2, 0, 0, 0, 0, 0, 0, 0, 0, 0]\nclass = Breaded Pork Tenderloin Sandwich", fillcolor="#e58139"] ;
577 -> 583 ;
584 [label="Major <= 1.5\ngini = 0.388\nsamples = 178\nvalue = [14, 7, 0, 0, 5, 138, 6, 6, 1, 1]\nclass = Indiana Corn on the Cob (brushed with garlic butter)", fillcolor="#69b5eb"] ;
572 -> 584 ;
585 [label="gini = 0.0\nsamples = 1\nvalue = [0, 0, 0, 0, 0, 0, 0, 1, 0, 0]\nclass = Sugar Cream Pie", fillcolor="#a339e5"] ;
584 -> 585 ;
586 [label="Major <= 2.5\ngini = 0.381\nsamples = 177\nvalue = [14, 7, 0, 0, 5, 138, 6, 5, 1, 1]\nclass = Indiana Corn on the Cob (brushed with garlic butter)", fillcolor="#68b4eb"] ;
584 -> 586 ;
587 [label="Time <= 11.5\ngini = 0.164\nsamples = 46\nvalue = [1, 2, 0, 0, 1, 42, 0, 0, 0, 0]\nclass = Indiana Corn on the Cob (brushed with garlic butter)", fillcolor="#4ba6e7"] ;
586 -> 587 ;
588 [label="gini = 0.0\nsamples = 17\nvalue = [0, 0, 0, 0, 0, 17, 0, 0, 0, 0]\nclass = Indiana Corn on the Cob (brushed with garlic butter)", fillcolor="#399de5"] ;
587 -> 588 ;
589 [label="gini = 0.25\nsamples = 29\nvalue = [1, 2, 0, 0, 1, 25, 0, 0, 0, 0]\nclass = Indiana Corn on the Cob (brushed with garlic butter)", fillcolor="#56ace9"] ;
587 -> 589 ;
590 [label="Major <= 15.0\ngini = 0.447\nsamples = 131\nvalue = [13, 5, 0, 0, 4, 96, 6, 5, 1, 1]\nclass = Indiana Corn on the Cob (brushed with garlic butter)", fillcolor="#74baed"] ;
586 -> 590 ;
591 [label="Major <= 13.0\ngini = 0.56\nsamples = 87\nvalue = [10, 4, 0, 0, 4, 56, 6, 5, 1, 1]\nclass = Indiana Corn on the Cob (brushed with garlic butter)", fillcolor="#89c4ef"] ;
590 -> 591 ;
592 [label="Time <= 11.5\ngini = 0.541\nsamples = 85\nvalue = [10, 4, 0, 0, 4, 56, 6, 3, 1, 1]\nclass = Indiana Corn on the Cob (brushed with garlic butter)", fillcolor="#86c3ef"] ;
591 -> 592 ;
593 [label="Major <= 9.5\ngini = 0.426\nsamples = 34\nvalue = [1, 1, 0, 0, 0, 25, 6, 0, 1, 0]\nclass = Indiana Corn on the Cob (brushed with garlic butter)", fillcolor="#79bced"] ;
592 -> 593 ;
594 [label="Major <= 6.0\ngini = 0.588\nsamples = 17\nvalue = [0, 1, 0, 0, 0, 9, 6, 0, 1, 0]\nclass = Indiana Corn on the Cob (brushed with garlic butter)", fillcolor="#c9e4f8"] ;
593 -> 594 ;
595 [label="Major <= 3.5\ngini = 0.485\nsamples = 13\nvalue = [0, 1, 0, 0, 0, 9, 2, 0, 1, 0]\nclass = Indiana Corn on the Cob (brushed with garlic butter)", fillcolor="#81c1ee"] ;
594 -> 595 ;
596 [label="gini = 0.5\nsamples = 2\nvalue = [0, 1, 0, 0, 0, 0, 1, 0, 0, 0]\nclass = Cornbread Hush Puppies", fillcolor="#ffffff"] ;
595 -> 596 ;
597 [label="Major <= 4.5\ngini = 0.314\nsamples = 11\nvalue = [0, 0, 0, 0, 0, 9, 1, 0, 1, 0]\nclass = Indiana Corn on the Cob (brushed with garlic butter)", fillcolor="#61b1ea"] ;
595 -> 597 ;
598 [label="gini = 0.0\nsamples = 7\nvalue = [0, 0, 0, 0, 0, 7, 0, 0, 0, 0]\nclass = Indiana Corn on the Cob (brushed with garlic butter)", fillcolor="#399de5"] ;
597 -> 598 ;
599 [label="gini = 0.625\nsamples = 4\nvalue = [0, 0, 0, 0, 0, 2, 1, 0, 1, 0]\nclass = Indiana Corn on the Cob (brushed with garlic butter)", fillcolor="#bddef6"] ;
597 -> 599 ;
600 [label="gini = 0.0\nsamples = 4\nvalue = [0, 0, 0, 0, 0, 0, 4, 0, 0, 0]\nclass = Indiana Pork Chili", fillcolor="#3c39e5"] ;
594 -> 600 ;
601 [label="gini = 0.111\nsamples = 17\nvalue = [1, 0, 0, 0, 0, 16, 0, 0, 0, 0]\nclass = Indiana Corn on the Cob (brushed with garlic butter)", fillcolor="#45a3e7"] ;
593 -> 601 ;
602 [label="Major <= 6.0\ngini = 0.586\nsamples = 51\nvalue = [9, 3, 0, 0, 4, 31, 0, 3, 0, 1]\nclass = Indiana Corn on the Cob (brushed with garlic butter)", fillcolor="#97ccf1"] ;
592 -> 602 ;
603 [label="Major <= 4.5\ngini = 0.375\nsamples = 32\nvalue = [2, 1, 0, 0, 3, 25, 0, 1, 0, 0]\nclass = Indiana Corn on the Cob (brushed with garlic butter)", fillcolor="#69b5eb"] ;
602 -> 603 ;
604 [label="Major <= 3.5\ngini = 0.571\nsamples = 7\nvalue = [2, 0, 0, 0, 1, 4, 0, 0, 0, 0]\nclass = Indiana Corn on the Cob (brushed with garlic butter)", fillcolor="#b0d8f5"] ;
603 -> 604 ;
605 [label="gini = 0.5\nsamples = 6\nvalue = [1, 0, 0, 0, 1, 4, 0, 0, 0, 0]\nclass = Indiana Corn on the Cob (brushed with garlic butter)", fillcolor="#88c4ef"] ;
604 -> 605 ;
606 [label="gini = 0.0\nsamples = 1\nvalue = [1, 0, 0, 0, 0, 0, 0, 0, 0, 0]\nclass = Breaded Pork Tenderloin Sandwich", fillcolor="#e58139"] ;
604 -> 606 ;
607 [label="gini = 0.285\nsamples = 25\nvalue = [0, 1, 0, 0, 2, 21, 0, 1, 0, 0]\nclass = Indiana Corn on the Cob (brushed with garlic butter)", fillcolor="#5baeea"] ;
603 -> 607 ;
608 [label="Major <= 11.5\ngini = 0.737\nsamples = 19\nvalue = [7, 2, 0, 0, 1, 6, 0, 2, 0, 1]\nclass = Breaded Pork Tenderloin Sandwich", fillcolor="#fdf5f0"] ;
602 -> 608 ;
609 [label="Major <= 9.0\ngini = 0.75\nsamples = 8\nvalue = [3, 1, 0, 0, 1, 1, 0, 2, 0, 0]\nclass = Breaded Pork Tenderloin Sandwich", fillcolor="#fbeade"] ;
608 -> 609 ;
